{"lChilds": [1, 2, 3, 4, 5, 6, 7, 8, 9, 10, 11, 12, 13, 14, 15, 16, 17, 18, 19, 20, 21, 22, 23, 24, 25, 26, 27, -1, -1, -1, -1, -1, -1, -1, -1, 36, 37, 38, 39, -1, -1, -1, -1, -1, 45, 46, -1, -1, -1, -1, 51, 52, 53, 54, 55, 56, 57, 58, 59, 60, -1, -1, -1, -1, -1, 66, 67, 68, -1, -1, -1, -1, 73, -1, -1, -1, -1, 78, -1, -1, -1, 82, 83, 84, 85, 86, 87, 88, -1, 90, -1, -1, -1, -1, -1, -1, -1, 98, 99, 100, 101, -1, -1, -1, -1, -1, 107, 108, 109, -1, -1, -1, -1, 114, 115, -1, -1, -1, 119, 120, -1, -1, -1, 124, 125, 126, 127, 128, 129, 130, 131, 132, 133, 134, 135, 136, 137, -1, -1, -1, -1, -1, -1, -1, -1, -1, 147, 148, 149, 150, -1, -1, -1, -1, -1, 156, -1, -1, 159, -1, -1, -1, 163, 164, 165, 166, 167, -1, -1, -1, -1, -1, -1, 174, 175, 176, 177, 178, 179, 180, -1, -1, -1, -1, -1, 186, -1, -1, -1, -1, 191, 192, 193, 194, 195, -1, -1, 198, -1, -1, 201, 202, -1, -1, -1, 206, 207, -1, -1, -1, 211, -1, -1, 214, 215, 216, 217, 218, -1, -1, 221, 222, 223, -1, -1, -1, -1, -1, -1, 230, 231, -1, -1, -1, 235, 236, 237, 238, 239, 240, 241, 242, 243, 244, 245, 246, 247, 248, -1, -1, 251, -1, -1, -1, 255, -1, -1, -1, -1, -1, 261, 262, -1, -1, -1, -1, -1, 268, -1, -1, 271, 272, 273, 274, -1, -1, -1, -1, -1, 280, -1, -1, 283, 284, 285, 286, 287, 288, 289, 290, 291, -1, -1, -1, -1, -1, -1, -1, -1, -1, 301, -1, -1, 304, 305, 306, 307, 308, 309, 310, 311, 312, 313, 314, 315, 316, 317, -1, 319, 320, 321, -1, -1, -1, -1, -1, 327, 328, 329, 330, 331, 332, -1, -1, 335, -1, -1, -1, -1, -1, -1, 342, 343, -1, -1, 346, -1, -1, -1, -1, -1, -1, -1, 354, -1, -1, -1, 358, 359, 360, 361, 362, -1, -1, -1, -1, -1, -1, 369, -1, -1, 372, 373, 374, 375, -1, 377, 378, -1, -1, -1, -1, -1, 384, 385, -1, -1, -1, 389, 390, 391, 392, 393, 394, 395, 396, 397, 398, 399, 400, 401, 402, 403, 404, 405, -1, -1, 408, -1, -1, 411, 412, 413, -1, -1, 416, -1, -1, 419, -1, -1, 422, -1, -1, 425, -1, -1, -1, 429, -1, -1, 432, 433, -1, -1, 436, -1, -1, -1, -1, 441, -1, -1, 444, 445, -1, 447, 448, -1, -1, -1, 452, -1, -1, 455, 456, 457, 458, 459, 460, 461, 462, 463, 464, 465, -1, -1, -1, -1, -1, -1, -1, -1, 474, 475, -1, -1, -1, -1, 480, 481, 482, 483, -1, -1, -1, -1, -1, 489, 490, -1, -1, -1, 494, 495, -1, -1, 498, -1, -1, 501, -1, -1, 504, -1, -1, 507, 508, 509, 510, 511, 512, 513, 514, 515, 516, 517, 518, -1, -1, -1, -1, -1, -1, -1, -1, 527, -1, -1, 530, 531, 532, 533, -1, -1, -1, -1, -1, -1, -1, 541, 542, -1, -1, -1, 546, 547, 548, 549, 550, 551, 552, 553, 554, 555, 556, 557, 558, 559, 560, 561, 562, 563, 564, 565, 566, -1, -1, -1, -1, -1, 572, 573, 574, 575, -1, -1, -1, -1, -1, 581, 582, 583, 584, -1, -1, -1, -1, 589, -1, -1, 592, 593, -1, -1, -1, 597, 598, -1, -1, -1, 602, 603, 604, 605, 606, 607, 608, -1, -1, -1, -1, 613, 614, 615, -1, -1, -1, -1, 620, -1, -1, -1, -1, 625, 626, 627, -1, -1, 630, -1, -1, 633, -1, -1, 636, 637, -1, 639, -1, -1, -1, 643, 644, 645, 646, -1, -1, -1, -1, 651, 652, -1, -1, -1, 656, 657, -1, -1, 660, -1, -1, 663, 664, 665, 666, 667, 668, 669, -1, -1, 672, -1, -1, -1, 676, -1, -1, -1, -1, 681, 682, 683, 684, 685, -1, -1, -1, -1, -1, -1, 692, 693, 694, 695, -1, -1, -1, -1, -1, 701, 702, 703, 704, 705, 706, 707, -1, -1, -1, 711, -1, -1, -1, 715, -1, -1, -1, 719, -1, -1, -1, 723, 724, 725, 726, -1, -1, -1, -1, -1, 732, 733, 734, 735, 736, 737, 738, 739, 740, 741, 742, 743, 744, 745, 746, -1, -1, -1, -1, 751, -1, -1, 754, -1, -1, 757, -1, -1, 760, 761, 762, -1, -1, -1, -1, 767, -1, -1, -1, -1, -1, 773, -1, -1, 776, 777, -1, -1, -1, 781, 782, 783, -1, -1, -1, -1, 788, 789, -1, -1, -1, 793, 794, 795, 796, 797, 798, 799, 800, 801, 802, 803, 804, 805, 806, 807, -1, -1, -1, -1, -1, -1, -1, -1, -1, -1, 818, 819, 820, -1, -1, -1, -1, -1, 826, -1, -1, 829, 830, 831, -1, -1, -1, -1, 836, 837, -1, -1, -1, 841, 842, -1, -1, -1, 846, 847, 848, 849, 850, 851, -1, -1, -1, 855, 856, -1, -1, -1, 860, 861, -1, -1, -1, -1, 866, -1, -1, 869, 870, 871, 872, 873, 874, 875, 876, 877, 878, 879, 880, 881, 882, 883, 884, 885, 886, 887, 888, 889, 890, 891, 892, -1, -1, -1, -1, -1, -1, -1, -1, 901, 902, 903, -1, -1, -1, -1, 908, 909, 910, 911, 912, 913, 914, 915, -1, -1, 918, -1, -1, 921, -1, -1, 924, -1, -1, 927, -1, -1, 930, -1, -1, -1, -1, 935, -1, 937, -1, -1, 940, 941, -1, -1, 944, -1, -1, 947, 948, 949, 950, -1, 952, -1, -1, -1, 956, -1, -1, -1, 960, 961, 962, 963, 964, 965, 966, 967, -1, -1, -1, -1, -1, -1, -1, 975, 976, 977, -1, -1, -1, -1, -1, 983, 984, 985, 986, 987, 988, 989, 990, 991, 992, -1, -1, -1, 996, -1, -1, 999, -1, -1, 1002, -1, -1, 1005, -1, -1, -1, -1, -1, 1011, 1012, 1013, 1014, 1015, 1016, 1017, 1018, -1, -1, -1, -1, -1, -1, -1, -1, -1, 1028, 1029, 1030, -1, -1, 1033, -1, -1, 1036, 1037, -1, -1, -1, 1041, 1042, 1043, -1, -1, -1, 1047, 1048, -1, -1, -1, 1052, 1053, 1054, 1055, 1056, -1, -1, 1059, -1, -1, -1, 1063, 1064, -1, -1, -1, 1068, -1, -1, 1071, 1072, 1073, 1074, 1075, 1076, 1077, 1078, 1079, 1080, 1081, 1082, 1083, 1084, 1085, 1086, -1, -1, 1089, -1, -1, 1092, -1, -1, 1095, 1096, 1097, -1, -1, -1, -1, 1102, -1, -1, 1105, 1106, -1, -1, 1109, -1, -1, 1112, 1113, -1, -1, 1116, -1, -1, 1119, -1, 1121, -1, -1, 1124, 1125, -1, -1, -1, 1129, 1130, -1, -1, -1, 1134, 1135, -1, -1, 1138, -1, -1, 1141, 1142, -1, -1, 1145, -1, -1, 1148, 1149, 1150, 1151, 1152, 1153, 1154, 1155, 1156, 1157, 1158, -1, -1, -1, -1, -1, -1, -1, -1, -1, -1, -1, 1170, -1, -1, 1173, 1174, 1175, -1, -1, -1, 1179, -1, -1, 1182, 1183, 1184, -1, -1, -1, 1188, -1, -1, 1191, 1192, 1193, 1194, -1, -1, -1, -1, -1, 1200, 1201, 1202, 1203, 1204, -1, 1206, -1, -1, -1, -1, 1211, 1212, -1, -1, -1, -1, 1217, 1218, 1219, 1220, 1221, 1222, 1223, 1224, 1225, 1226, 1227, 1228, 1229, 1230, 1231, 1232, 1233, -1, -1, -1, -1, -1, -1, 1240, -1, -1, 1243, 1244, -1, -1, -1, -1, -1, 1250, -1, -1, -1, 1254, 1255, -1, -1, -1, 1259, 1260, -1, -1, -1, 1264, 1265, 1266, 1267, 1268, 1269, 1270, -1, -1, -1, -1, 1275, -1, -1, -1, -1, 1280, 1281, 1282, 1283, -1, -1, -1, -1, -1, 1289, 1290, -1, -1, 1293, -1, -1, 1296, -1, -1, 1299, -1, -1, 1302, 1303, 1304, 1305, 1306, 1307, 1308, 1309, 1310, 1311, 1312, 1313, 1314, 1315, 1316, 1317, -1, -1, -1, -1, -1, -1, 1324, 1325, 1326, 1327, 1328, 1329, 1330, 1331, -1, -1, -1, -1, -1, -1, -1, 1339, 1340, 1341, 1342, -1, -1, -1, -1, -1, 1348, -1, -1, 1351, 1352, 1353, 1354, 1355, 1356, 1357, -1, -1, -1, -1, -1, 1363, -1, -1, -1, -1, 1368, 1369, -1, -1, -1, 1373, 1374, -1, -1, -1, -1, 1379, -1, -1, 1382, 1383, -1, 1385, -1, -1, 1388, -1, -1, 1391, 1392, 1393, -1, -1, -1, 1397, 1398, -1, -1, -1, 1402, -1, 1404, -1, -1, 1407, 1408, 1409, 1410, 1411, 1412, 1413, 1414, 1415, 1416, 1417, 1418, 1419, -1, -1, 1422, -1, -1, -1, -1, -1, -1, 1429, -1, -1, 1432, -1, -1, -1, 1436, -1, -1, -1, -1, -1, 1442, 1443, 1444, 1445, 1446, 1447, 1448, 1449, 1450, 1451, 1452, 1453, 1454, -1, -1, 1457, 1458, -1, -1, -1, 1462, 1463, 1464, 1465, -1, -1, -1, -1, -1, -1, -1, -1, 1474, 1475, -1, -1, -1, 1479, -1, -1, 1482, -1, -1, -1, -1, -1, 1488, 1489, 1490, 1491, 1492, 1493, 1494, 1495, -1, -1, -1, -1, -1, -1, -1, -1, -1, 1505, 1506, 1507, 1508, 1509, 1510, 1511, 1512, 1513, 1514, 1515, 1516, 1517, 1518, 1519, -1, 1521, 1522, 1523, 1524, -1, -1, -1, -1, -1, -1, 1531, -1, -1, -1, -1, -1, 1537, 1538, 1539, 1540, 1541, 1542, 1543, -1, -1, -1, -1, -1, -1, -1, -1, -1, 1553, 1554, 1555, -1, -1, -1, -1, 1560, -1, -1, 1563, 1564, -1, -1, 1567, -1, -1, 1570, 1571, 1572, -1, -1, -1, -1, 1577, 1578, 1579, 1580, 1581, 1582, -1, 1584, 1585, 1586, 1587, 1588, 1589, 1590, -1, -1, -1, -1, -1, -1, -1, -1, -1, -1, 1601, -1, -1, -1, -1, -1, 1607, -1, -1, 1610, 1611, 1612, 1613, 1614, 1615, 1616, 1617, 1618, 1619, 1620, 1621, 1622, 1623, 1624, 1625, 1626, 1627, 1628, -1, -1, -1, 1632, 1633, -1, -1, -1, -1, 1638, -1, -1, 1641, -1, -1, 1644, -1, -1, 1647, -1, -1, -1, 1651, -1, -1, 1654, -1, -1, 1657, 1658, 1659, 1660, 1661, 1662, -1, -1, -1, -1, -1, -1, -1, 1670, 1671, 1672, 1673, 1674, 1675, 1676, 1677, -1, -1, -1, -1, -1, -1, 1684, -1, -1, -1, -1, 1689, 1690, -1, -1, -1, 1694, 1695, 1696, 1697, 1698, 1699, 1700, 1701, 1702, 1703, 1704, 1705, -1, -1, 1708, -1, -1, -1, -1, -1, -1, 1715, -1, -1, -1, 1719, -1, -1, 1722, 1723, 1724, 1725, -1, -1, -1, -1, -1, 1731, -1, -1, 1734, -1, -1, 1737, 1738, 1739, 1740, 1741, -1, -1, -1, -1, 1746, -1, -1, -1, 1750, 1751, 1752, 1753, 1754, -1, -1, -1, -1, -1, 1760, 1761, -1, -1, -1, 1765, 1766, 1767, 1768, 1769, 1770, 1771, 1772, 1773, 1774, 1775, 1776, 1777, -1, -1, -1, -1, -1, -1, 1784, -1, -1, -1, 1788, 1789, 1790, -1, -1, -1, -1, 1795, -1, -1, 1798, 1799, -1, -1, -1, -1, 1804, -1, -1, 1807, 1808, -1, -1, -1, 1812, 1813, 1814, 1815, -1, -1, -1, -1, -1, 1821, 1822, 1823, 1824, 1825, 1826, 1827, 1828, 1829, 1830, 1831, 1832, 1833, 1834, -1, -1, -1, 1838, 1839, 1840, -1, -1, -1, -1, 1845, -1, -1, -1, -1, -1, 1851, -1, -1, 1854, 1855, -1, -1, 1858, -1, -1, -1, -1, 1863, 1864, 1865, 1866, 1867, 1868, 1869, 1870, 1871, 1872, 1873, 1874, 1875, 1876, -1, -1, -1, -1, -1, -1, 1883, 1884, -1, -1, -1, -1, 1889, -1, -1, -1, 1893, 1894, 1895, 1896, -1, -1, -1, -1, -1, -1, 1903, -1, -1, -1, -1, 1908, 1909, 1910, 1911, 1912, 1913, 1914, 1915, 1916, -1, -1, -1, -1, -1, -1, -1, 1924, -1, -1, 1927, -1, -1, -1, 1931, 1932, 1933, 1934, 1935, 1936, 1937, 1938, 1939, 1940, 1941, 1942, 1943, 1944, 1945, 1946, -1, -1, -1, -1, -1, -1, -1, 1954, 1955, 1956, 1957, -1, -1, -1, -1, -1, 1963, -1, -1, 1966, -1, -1, 1969, -1, -1, 1972, 1973, 1974, 1975, 1976, 1977, 1978, -1, -1, -1, -1, -1, -1, -1, -1, 1987, 1988, -1, -1, -1, 1992, 1993, -1, -1, -1, 1997, -1, -1, 2000, 2001, -1, -1, -1, 2005, 2006, -1, -1, -1, 2010, 2011, 2012, 2013, 2014, 2015, 2016, 2017, 2018, 2019, 2020, 2021, 2022, 2023, 2024, 2025, 2026, 2027, 2028, 2029, 2030, 2031, 2032, 2033, 2034, -1, -1, 2037, -1, -1, 2040, -1, -1, 2043, 2044, 2045, -1, -1, 2048, -1, -1, -1, 2052, 2053, 2054, -1, -1, 2057, -1, -1, 2060, -1, -1, 2063, 2064, 2065, 2066, -1, -1, 2069, -1, -1, -1, 2073, -1, -1, 2076, 2077, 2078, -1, -1, 2081, 2082, -1, -1, -1, 2086, 2087, -1, -1, -1, 2091, 2092, 2093, -1, -1, 2096, -1, -1, 2099, 2100, -1, -1, -1, 2104, 2105, 2106, 2107, -1, -1, -1, 2111, 2112, -1, -1, -1, 2116, 2117, -1, -1, -1, 2121, 2122, 2123, -1, -1, 2126, 2127, -1, -1, -1, 2131, 2132, -1, -1, -1, 2136, 2137, 2138, 2139, -1, -1, 2142, -1, -1, -1, 2146, 2147, -1, -1, -1, 2151, 2152, 2153, 2154, -1, -1, 2157, -1, -1, -1, 2161, 2162, -1, -1, -1, 2166, 2167, 2168, 2169, 2170, 2171, 2172, 2173, 2174, 2175, 2176, -1, -1, -1, -1, -1, -1, -1, 2184, 2185, 2186, 2187, 2188, 2189, 2190, -1, -1, -1, -1, -1, 2196, -1, -1, -1, 2200, -1, -1, 2203, -1, -1, 2206, 2207, 2208, 2209, 2210, 2211, 2212, 2213, -1, -1, -1, -1, -1, -1, -1, 2221, 2222, 2223, 2224, 2225, 2226, -1, -1, -1, -1, -1, -1, -1, 2234, -1, -1, 2237, 2238, 2239, -1, -1, -1, 2243, -1, -1, 2246, 2247, 2248, 2249, 2250, -1, -1, -1, 2254, 2255, 2256, 2257, 2258, 2259, 2260, -1, -1, -1, -1, -1, -1, -1, -1, 2269, -1, -1, 2272, 2273, 2274, 2275, 2276, 2277, 2278, 2279, -1, -1, -1, -1, -1, -1, -1, -1, -1, 2289, 2290, 2291, 2292, 2293, 2294, 2295, 2296, 2297, 2298, 2299, -1, -1, -1, -1, -1, -1, 2306, 2307, -1, -1, -1, -1, 2312, -1, -1, 2315, -1, -1, 2318, 2319, 2320, 2321, 2322, 2323, 2324, -1, -1, -1, -1, -1, -1, -1, -1, 2333, 2334, 2335, 2336, 2337, 2338, 2339, 2340, 2341, -1, -1, -1, 2345, 2346, -1, -1, -1, 2350, -1, -1, 2353, -1, -1, 2356, -1, -1, -1, 2360, -1, -1, 2363, -1, -1, 2366, 2367, 2368, 2369, 2370, 2371, 2372, 2373, 2374, 2375, 2376, 2377, -1, -1, -1, -1, -1, -1, -1, -1, 2386, 2387, 2388, 2389, 2390, 2391, 2392, 2393, -1, -1, -1, -1, -1, -1, -1, -1, 2402, -1, -1, 2405, 2406, 2407, 2408, 2409, 2410, 2411, 2412, -1, -1, -1, -1, -1, -1, -1, 2420, 2421, 2422, 2423, 2424, 2425, -1, -1, -1, -1, -1, -1, -1, 2433, -1, -1, 2436, 2437, 2438, -1, -1, -1, 2442, -1, -1, 2445, 2446, 2447, 2448, 2449, 2450, 2451, 2452, 2453, -1, -1, -1, -1, -1, -1, -1, 2461, 2462, 2463, 2464, 2465, 2466, 2467, -1, -1, -1, -1, -1, -1, -1, -1, 2476, 2477, 2478, 2479, 2480, 2481, 2482, -1, -1, -1, -1, -1, -1, -1, -1, 2491, -1, -1, 2494, 2495, 2496, 2497, 2498, 2499, 2500, 2501, 2502, 2503, -1, -1, -1, -1, -1, -1, -1, -1, -1, 2513, 2514, 2515, 2516, -1, -1, -1, -1, -1, 2522, 2523, 2524, 2525, 2526, 2527, 2528, 2529, -1, -1, -1, -1, -1, -1, -1, -1, -1, 2539, 2540, 2541, 2542, 2543, 2544, 2545, -1, -1, 2548, -1, -1, 2551, -1, -1, -1, 2555, 2556, 2557, -1, -1, -1, -1, 2562, 2563, 2564, -1, -1, -1, 2568, 2569, -1, -1, -1, 2573, 2574, 2575, 2576, 2577, -1, -1, 2580, -1, -1, 2583, -1, -1, 2586, 2587, -1, -1, -1, 2591, 2592, -1, -1, -1, 2596, 2597, 2598, 2599, 2600, 2601, 2602, 2603, 2604, 2605, 2606, 2607, 2608, -1, 2610, -1, -1, -1, -1, -1, 2616, 2617, 2618, 2619, 2620, -1, -1, -1, -1, -1, -1, 2627, 2628, -1, -1, 2631, -1, -1, 2634, 2635, -1, -1, -1, 2639, 2640, 2641, 2642, 2643, -1, -1, -1, -1, -1, 2649, -1, -1, 2652, 2653, -1, -1, 2656, 2657, 2658, 2659, 2660, -1, -1, -1, -1, -1, -1, 2667, 2668, 2669, 2670, -1, -1, 2673, -1, -1, 2676, -1, -1, 2679, 2680, -1, -1, -1, 2684, 2685, 2686, -1, 2688, -1, -1, -1, 2692, 2693, -1, -1, -1, 2697, 2698, 2699, 2700, -1, -1, -1, 2704, -1, -1, -1, 2708, 2709, 2710, 2711, 2712, 2713, 2714, 2715, 2716, 2717, -1, -1, -1, -1, 2722, 2723, -1, -1, -1, -1, 2728, 2729, 2730, 2731, -1, -1, -1, -1, -1, 2737, -1, -1, 2740, 2741, -1, -1, -1, -1, 2746, -1, -1, 2749, 2750, 2751, 2752, 2753, 2754, 2755, 2756, 2757, 2758, 2759, 2760, 2761, 2762, -1, -1, -1, -1, 2767, 2768, 2769, -1, -1, -1, -1, 2774, -1, -1, 2777, -1, -1, 2780, 2781, 2782, 2783, 2784, 2785, -1, -1, -1, 2789, -1, -1, 2792, -1, -1, 2795, -1, -1, 2798, -1, -1, 2801, 2802, -1, -1, 2805, -1, -1, 2808, 2809, 2810, 2811, 2812, 2813, 2814, -1, -1, 2817, -1, -1, 2820, -1, -1, -1, -1, 2825, -1, -1, 2828, -1, -1, 2831, 2832, 2833, -1, -1, -1, 2837, 2838, -1, -1, -1, 2842, 2843, 2844, -1, -1, 2847, -1, -1, 2850, -1, -1, 2853, 2854, 2855, -1, -1, -1, 2859, -1, -1, 2862, 2863, 2864, 2865, 2866, 2867, 2868, 2869, 2870, 2871, 2872, -1, -1, -1, -1, 2877, 2878, -1, -1, -1, -1, -1, 2884, -1, -1, 2887, -1, -1, 2890, -1, -1, 2893, 2894, 2895, 2896, 2897, 2898, 2899, 2900, -1, -1, -1, -1, -1, -1, -1, -1, -1, 2910, 2911, -1, -1, -1, 2915, 2916, 2917, 2918, 2919, 2920, 2921, 2922, 2923, 2924, 2925, -1, -1, -1, -1, -1, -1, -1, -1, -1, 2935, 2936, 2937, 2938, -1, -1, -1, -1, -1, 2944, -1, -1, 2947, 2948, 2949, 2950, 2951, 2952, 2953, 2954, 2955, -1, -1, -1, -1, -1, -1, -1, -1, -1, -1, 2966, 2967, 2968, 2969, 2970, 2971, 2972, 2973, 2974, -1, -1, -1, -1, 2979, 2980, 2981, -1, -1, -1, -1, 2986, 2987, -1, 2989, -1, -1, -1, 2993, 2994, -1, -1, -1, 2998, 2999, 3000, 3001, -1, 3003, -1, -1, 3006, -1, -1, -1, 3010, -1, -1, 3013, 3014, 3015, 3016, -1, -1, -1, 3020, -1, -1, 3023, 3024, -1, -1, -1, 3028, 3029, 3030, 3031, 3032, 3033, -1, -1, -1, 3037, -1, -1, -1, 3041, 3042, -1, -1, -1, 3046, 3047, -1, -1, -1, 3051, 3052, 3053, 3054, 3055, 3056, 3057, 3058, 3059, -1, -1, -1, 3063, 3064, -1, -1, -1, 3068, -1, -1, 3071, 3072, 3073, -1, -1, -1, -1, 3078, 3079, 3080, 3081, -1, -1, -1, -1, 3086, -1, -1, 3089, 3090, 3091, 3092, 3093, -1, -1, 3096, -1, -1, 3099, -1, -1, 3102, 3103, -1, -1, -1, 3107, 3108, -1, -1, -1, 3112, 3113, 3114, 3115, -1, -1, -1, -1, 3120, 3121, -1, -1, -1, 3125, 3126, 3127, 3128, 3129, 3130, -1, -1, -1, 3134, -1, -1, 3137, -1, -1, 3140, -1, -1, 3143, 3144, 3145, 3146, -1, -1, -1, -1, -1, 3152, 3153, 3154, 3155, 3156, 3157, 3158, 3159, 3160, 3161, 3162, 3163, 3164, 3165, -1, -1, -1, 3169, -1, -1, 3172, -1, -1, 3175, -1, -1, 3178, 3179, -1, -1, -1, 3183, 3184, -1, -1, -1, 3188, -1, -1, 3191, 3192, -1, -1, -1, 3196, 3197, -1, -1, -1, 3201, 3202, -1, -1, -1, -1, 3207, 3208, -1, -1, -1, 3212, 3213, -1, -1, -1, 3217, 3218, 3219, 3220, 3221, 3222, 3223, 3224, 3225, -1, -1, -1, -1, 3230, 3231, -1, -1, -1, 3235, 3236, 3237, -1, -1, -1, -1, 3242, 3243, 3244, -1, -1, -1, -1, 3249, 3250, 3251, 3252, 3253, 3254, -1, -1, 3257, -1, -1, 3260, -1, -1, 3263, -1, -1, 3266, -1, -1, 3269, 3270, -1, -1, -1, 3274, 3275, 3276, 3277, -1, -1, -1, 3281, -1, -1, -1, 3285, 3286, 3287, 3288, 3289, 3290, 3291, 3292, -1, -1, -1, -1, -1, 3298, 3299, -1, -1, -1, -1, 3304, 3305, 3306, 3307, -1, -1, -1, -1, -1, 3313, 3314, 3315, 3316, -1, -1, -1, -1, -1, 3322, 3323, 3324, 3325, 3326, 3327, 3328, 3329, 3330, 3331, -1, -1, 3334, -1, -1, -1, -1, 3339, 3340, 3341, -1, -1, -1, -1, 3346, -1, -1, 3349, 3350, 3351, 3352, -1, -1, -1, -1, 3357, 3358, 3359, -1, -1, -1, -1, 3364, -1, -1, 3367, 3368, 3369, -1, 3371, -1, -1, -1, 3375, -1, -1, 3378, 3379, 3380, 3381, 3382, 3383, 3384, -1, -1, 3387, -1, -1, -1, -1, 3392, 3393, 3394, 3395, -1, -1, -1, -1, -1, 3401, 3402, 3403, -1, -1, -1, -1, 3408, -1, -1, 3411, 3412, 3413, 3414, 3415, 3416, 3417, 3418, 3419, 3420, 3421, 3422, 3423, 3424, 3425, 3426, -1, -1, 3429, -1, -1, -1, 3433, -1, -1, 3436, -1, -1, 3439, -1, -1, 3442, -1, -1, -1, 3446, -1, -1, 3449, -1, -1, 3452, -1, -1, 3455, -1, -1, 3458, 3459, 3460, 3461, 3462, 3463, 3464, 3465, 3466, 3467, 3468, 3469, -1, -1, -1, -1, -1, -1, -1, -1, -1, -1, -1, -1, -1, 3483, -1, -1, 3486, 3487, 3488, 3489, 3490, 3491, 3492, 3493, 3494, 3495, 3496, 3497, 3498, 3499, -1, -1, -1, -1, -1, 3505, -1, -1, -1, -1, -1, -1, -1, 3513, -1, -1, 3516, -1, -1, 3519, 3520, 3521, 3522, 3523, -1, -1, -1, -1, -1, -1, 3530, -1, -1, 3533, 3534, 3535, 3536, 3537, 3538, 3539, -1, -1, -1, -1, -1, 3545, -1, -1, 3548, -1, -1, 3551, 3552, 3553, 3554, 3555, 3556, 3557, 3558, 3559, 3560, 3561, -1, -1, -1, -1, -1, -1, -1, -1, -1, -1, -1, -1, 3574, 3575, 3576, 3577, 3578, 3579, 3580, 3581, 3582, 3583, 3584, 3585, 3586, 3587, 3588, 3589, 3590, 3591, 3592, 3593, 3594, 3595, -1, -1, -1, -1, 3600, -1, -1, 3603, -1, -1, 3606, 3607, -1, -1, -1, 3611, 3612, 3613, -1, -1, -1, -1, 3618, -1, -1, 3621, -1, -1, 3624, 3625, 3626, 3627, -1, -1, -1, -1, -1, 3633, -1, -1, -1, 3637, 3638, -1, -1, -1, 3642, 3643, 3644, 3645, -1, -1, -1, -1, -1, 3651, 3652, 3653, 3654, 3655, 3656, 3657, 3658, 3659, -1, -1, -1, -1, -1, -1, 3666, -1, -1, 3669, -1, -1, -1, 3673, 3674, -1, -1, -1, 3678, -1, -1, 3681, 3682, 3683, 3684, 3685, 3686, 3687, 3688, 3689, -1, -1, -1, 3693, 3694, 3695, 3696, -1, -1, -1, -1, -1, 3702, 3703, -1, -1, -1, -1, -1, 3709, 3710, 3711, -1, -1, -1, -1, -1, 3717, 3718, 3719, 3720, 3721, -1, -1, -1, -1, -1, -1, 3728, 3729, 3730, 3731, 3732, 3733, -1, -1, -1, 3737, -1, -1, -1, -1, -1, 3743, 3744, 3745, 3746, 3747, 3748, -1, -1, 3751, 3752, 3753, -1, -1, -1, -1, -1, 3759, 3760, 3761, -1, -1, -1, -1, 3766, 3767, -1, -1, -1, 3771, 3772, 3773, 3774, 3775, -1, -1, -1, -1, -1, -1, 3782, 3783, 3784, 3785, -1, 3787, 3788, 3789, -1, -1, -1, -1, -1, -1, 3796, -1, -1, 3799, 3800, 3801, 3802, 3803, 3804, -1, -1, 3807, 3808, -1, -1, -1, -1, 3813, -1, -1, 3816, 3817, -1, -1, -1, 3821, -1, -1, 3824, 3825, 3826, 3827, 3828, -1, -1, -1, 3832, 3833, 3834, 3835, -1, -1, -1, -1, -1, -1, 3842, -1, -1, 3845, 3846, 3847, 3848, 3849, 3850, 3851, 3852, 3853, 3854, 3855, 3856, 3857, 3858, 3859, 3860, 3861, 3862, 3863, 3864, 3865, 3866, 3867, 3868, 3869, -1, -1, -1, -1, -1, -1, 3876, 3877, 3878, -1, -1, -1, -1, 3883, -1, -1, -1, 3887, 3888, 3889, -1, -1, -1, -1, -1, 3895, 3896, -1, -1, -1, 3900, 3901, 3902, 3903, 3904, 3905, 3906, 3907, 3908, 3909, -1, -1, -1, 3913, -1, -1, -1, -1, -1, 3919, -1, -1, 3922, -1, -1, 3925, 3926, 3927, -1, -1, -1, -1, 3932, 3933, 3934, -1, -1, -1, -1, 3939, 3940, 3941, 3942, 3943, 3944, 3945, 3946, 3947, 3948, 3949, -1, -1, -1, -1, -1, -1, -1, -1, 3958, 3959, 3960, 3961, 3962, 3963, 3964, -1, -1, -1, -1, -1, -1, -1, -1, 3973, 3974, 3975, 3976, 3977, 3978, 3979, -1, -1, 3982, -1, -1, 3985, -1, -1, 3988, -1, -1, 3991, -1, -1, -1, 3995, -1, -1, 3998, -1, -1, 4001, 4002, 4003, 4004, 4005, 4006, 4007, 4008, 4009, -1, -1, -1, -1, -1, -1, -1, -1, 4018, 4019, 4020, 4021, 4022, 4023, -1, -1, -1, -1, -1, -1, -1, 4031, -1, -1, 4034, 4035, 4036, 4037, 4038, 4039, 4040, 4041, 4042, 4043, 4044, -1, -1, -1, 4048, -1, -1, -1, 4052, 4053, 4054, -1, -1, -1, -1, 4059, 4060, -1, -1, -1, 4064, -1, -1, 4067, 4068, -1, -1, -1, 4072, 4073, -1, -1, -1, 4077, -1, -1, 4080, 4081, 4082, 4083, 4084, 4085, 4086, 4087, 4088, -1, -1, -1, -1, 4093, 4094, -1, -1, -1, -1, -1, -1, 4101, 4102, 4103, -1, -1, -1, -1, -1, 4109, 4110, 4111, 4112, 4113, 4114, 4115, 4116, 4117, 4118, 4119, 4120, 4121, -1, -1, 4124, -1, -1, -1, 4128, -1, -1, -1, -1, -1, 4134, -1, -1, 4137, 4138, 4139, 4140, 4141, 4142, -1, -1, -1, -1, -1, -1, -1, 4150, -1, -1, 4153, 4154, 4155, 4156, 4157, 4158, 4159, 4160, -1, -1, -1, 4164, 4165, -1, -1, -1, -1, 4170, -1, -1, 4173, -1, -1, -1, -1, 4178, 4179, 4180, -1, -1, -1, 4184, -1, -1, 4187, 4188, 4189, 4190, 4191, 4192, 4193, -1, -1, -1, -1, -1, -1, 4200, -1, -1, -1, 4204, 4205, 4206, 4207, 4208, 4209, 4210, -1, -1, -1, -1, 4215, 4216, -1, -1, -1, 4220, -1, -1, 4223, 4224, 4225, -1, -1, -1, -1, 4230, 4231, 4232, -1, -1, -1, 4236, -1, -1, 4239, 4240, 4241, 4242, 4243, 4244, 4245, 4246, 4247, -1, -1, -1, -1, 4252, 4253, -1, -1, -1, -1, 4258, 4259, -1, -1, -1, 4263, 4264, 4265, 4266, -1, -1, -1, -1, -1, -1, 4273, 4274, 4275, -1, -1, -1, -1, 4280, 4281, 4282, 4283, 4284, 4285, 4286, -1, -1, 4289, -1, -1, 4292, -1, -1, -1, -1, 4297, 4298, 4299, 4300, 4301, -1, -1, 4304, -1, -1, 4307, -1, -1, 4310, 4311, -1, -1, -1, -1, 4316, 4317, 4318, 4319, 4320, -1, -1, -1, 4324, -1, -1, -1, 4328, -1, -1, 4331, 4332, 4333, 4334, 4335, 4336, 4337, -1, -1, 4340, -1, -1, -1, 4344, 4345, 4346, -1, -1, 4349, -1, -1, -1, -1, 4354, 4355, 4356, 4357, -1, -1, 4360, -1, -1, -1, -1, 4365, 4366, 4367, 4368, -1, -1, 4371, -1, -1, 4374, -1, -1, 4377, -1, -1, 4380, 4381, 4382, 4383, 4384, 4385, 4386, 4387, 4388, 4389, 4390, 4391, 4392, 4393, 4394, 4395, -1, -1, -1, -1, -1, 4401, 4402, 4403, -1, -1, -1, -1, 4408, -1, -1, -1, -1, -1, 4414, -1, -1, 4417, -1, -1, 4420, 4421, 4422, -1, -1, -1, -1, 4427, 4428, 4429, -1, -1, -1, -1, 4434, 4435, -1, -1, -1, 4439, 4440, 4441, 4442, 4443, 4444, 4445, 4446, 4447, 4448, 4449, -1, -1, -1, 4453, -1, -1, -1, 4457, -1, -1, -1, -1, -1, -1, -1, -1, 4466, 4467, 4468, 4469, 4470, 4471, 4472, 4473, 4474, 4475, 4476, 4477, -1, -1, -1, -1, -1, -1, -1, -1, -1, 4487, -1, -1, -1, -1, 4492, 4493, 4494, 4495, -1, -1, -1, -1, -1, 4501, 4502, 4503, 4504, 4505, 4506, -1, -1, 4509, 4510, -1, -1, 4513, -1, -1, -1, 4517, -1, -1, -1, 4521, 4522, 4523, 4524, 4525, -1, -1, -1, -1, -1, -1, 4532, 4533, 4534, 4535, 4536, 4537, 4538, 4539, 4540, 4541, 4542, -1, -1, -1, -1, -1, -1, -1, 4550, -1, -1, 4553, 4554, 4555, 4556, 4557, 4558, -1, -1, 4561, -1, -1, -1, -1, -1, -1, 4568, -1, -1, 4571, 4572, -1, -1, -1, 4576, 4577, 4578, 4579, 4580, 4581, 4582, 4583, 4584, 4585, 4586, 4587, 4588, 4589, 4590, -1, -1, 4593, -1, -1, 4596, -1, -1, 4599, -1, -1, -1, 4603, -1, -1, 4606, -1, -1, 4609, -1, -1, 4612, 4613, 4614, -1, -1, -1, -1, -1, 4620, 4621, -1, -1, -1, 4625, 4626, -1, -1, -1, 4630, 4631, -1, -1, -1, 4635, 4636, -1, -1, -1, 4640, 4641, 4642, -1, -1, -1, -1, 4647, 4648, 4649, 4650, 4651, 4652, 4653, 4654, 4655, 4656, 4657, 4658, 4659, -1, -1, -1, -1, 4664, 4665, 4666, -1, -1, -1, -1, 4671, -1, -1, 4674, -1, -1, -1, -1, 4679, -1, -1, -1, 4683, -1, -1, 4686, 4687, 4688, -1, -1, -1, -1, -1, 4694, 4695, 4696, 4697, 4698, 4699, 4700, 4701, 4702, 4703, 4704, 4705, 4706, 4707, 4708, 4709, 4710, -1, -1, -1, -1, -1, 4716, 4717, 4718, 4719, 4720, 4721, -1, -1, -1, -1, -1, -1, -1, 4729, 4730, 4731, 4732, 4733, 4734, -1, -1, -1, -1, -1, -1, -1, 4742, 4743, -1, -1, -1, 4747, 4748, -1, -1, -1, 4752, 4753, -1, -1, -1, 4757, -1, -1, 4760, 4761, -1, -1, -1, 4765, 4766, -1, -1, -1, 4770, 4771, 4772, 4773, 4774, 4775, 4776, 4777, 4778, 4779, -1, -1, -1, -1, 4784, 4785, 4786, 4787, 4788, -1, -1, -1, -1, -1, -1, 4795, 4796, -1, -1, -1, 4800, -1, -1, 4803, 4804, -1, -1, -1, -1, -1, -1, 4811, 4812, 4813, 4814, 4815, 4816, 4817, 4818, -1, -1, 4821, 4822, -1, -1, -1, -1, 4827, 4828, 4829, 4830, 4831, 4832, 4833, -1, -1, -1, -1, -1, -1, -1, -1, -1, -1, -1, 4845, -1, -1, 4848, 4849, 4850, 4851, 4852, 4853, 4854, 4855, 4856, 4857, 4858, 4859, 4860, 4861, -1, -1, -1, -1, -1, -1, -1, -1, -1, -1, 4872, -1, -1, 4875, -1, -1, 4878, 4879, 4880, 4881, 4882, -1, -1, -1, -1, -1, -1, -1, 4890, -1, -1, 4893, 4894, 4895, 4896, -1, 4898, 4899, -1, -1, -1, -1, 4904, 4905, 4906, 4907, 4908, -1, -1, -1, -1, -1, -1, 4915, -1, -1, 4918, 4919, 4920, 4921, 4922, 4923, 4924, 4925, 4926, 4927, 4928, 4929, 4930, -1, -1, -1, -1, -1, -1, 4937, 4938, 4939, -1, -1, -1, -1, -1, -1, -1, 4947, 4948, 4949, 4950, -1, -1, -1, -1, -1, -1, 4957, -1, -1, 4960, -1, -1, 4963, 4964, 4965, 4966, 4967, 4968, 4969, 4970, 4971, 4972, 4973, 4974, -1, -1, -1, 4978, -1, -1, 4981, -1, -1, 4984, -1, 4986, -1, -1, 4989, 4990, -1, -1, -1, -1, -1, 4996, -1, 4998, -1, -1, 5001, 5002, -1, -1, -1, 5006, 5007, 5008, 5009, 5010, 5011, -1, -1, -1, -1, -1, -1, -1, 5019, 5020, 5021, -1, 5023, 5024, 5025, -1, -1, -1, -1, 5030, 5031, -1, -1, -1, 5035, -1, -1, 5038, 5039, 5040, 5041, 5042, 5043, 5044, 5045, 5046, 5047, 5048, 5049, 5050, 5051, 5052, 5053, 5054, 5055, 5056, 5057, 5058, 5059, 5060, 5061, 5062, -1, -1, -1, 5066, 5067, -1, -1, -1, -1, -1, -1, 5074, 5075, 5076, 5077, 5078, -1, -1, -1, -1, -1, -1, 5085, -1, -1, 5088, -1, -1, 5091, 5092, -1, -1, 5095, -1, -1, 5098, 5099, 5100, 5101, 5102, -1, -1, -1, 5106, -1, -1, 5109, -1, -1, -1, 5113, -1, -1, 5116, 5117, -1, -1, -1, 5121, 5122, -1, -1, -1, 5126, 5127, -1, -1, 5130, -1, -1, 5133, 5134, 5135, -1, -1, -1, 5139, -1, -1, 5142, 5143, 5144, 5145, 5146, 5147, 5148, 5149, 5150, 5151, 5152, 5153, 5154, 5155, 5156, 5157, -1, -1, -1, 5161, 5162, -1, -1, -1, -1, -1, 5168, -1, -1, -1, 5172, -1, -1, 5175, -1, -1, 5178, -1, -1, 5181, -1, -1, 5184, -1, -1, 5187, -1, -1, 5190, 5191, 5192, 5193, 5194, 5195, 5196, 5197, 5198, 5199, 5200, 5201, -1, -1, -1, -1, -1, -1, 5208, 5209, -1, -1, -1, -1, -1, -1, -1, -1, 5218, -1, -1, 5221, 5222, -1, -1, -1, 5226, 5227, 5228, 5229, 5230, 5231, 5232, 5233, 5234, 5235, 5236, 5237, 5238, 5239, -1, -1, -1, -1, -1, -1, 5246, 5247, 5248, 5249, -1, -1, -1, -1, -1, 5255, -1, -1, -1, -1, -1, 5261, -1, -1, -1, 5265, -1, -1, -1, 5269, 5270, 5271, 5272, 5273, 5274, 5275, 5276, 5277, 5278, 5279, 5280, 5281, 5282, 5283, 5284, -1, -1, -1, -1, 5289, 5290, -1, -1, -1, 5294, -1, -1, -1, -1, 5299, 5300, 5301, 5302, 5303, 5304, 5305, -1, -1, -1, -1, -1, -1, -1, -1, 5314, 5315, -1, -1, -1, 5319, -1, -1, 5322, 5323, 5324, 5325, 5326, 5327, 5328, 5329, 5330, -1, -1, -1, -1, -1, 5336, 5337, -1, -1, -1, 5341, -1, -1, -1, 5345, -1, -1, -1, 5349, 5350, 5351, -1, -1, -1, -1, 5356, 5357, 5358, -1, -1, 5361, -1, -1, -1, 5365, 5366, 5367, 5368, 5369, 5370, 5371, 5372, 5373, 5374, 5375, 5376, -1, -1, -1, 5380, -1, -1, 5383, -1, -1, 5386, -1, -1, 5389, -1, -1, 5392, -1, -1, 5395, -1, -1, 5398, -1, -1, -1, -1, 5403, -1, -1, 5406, 5407, 5408, -1, -1, -1, 5412, -1, -1, 5415, 5416, 5417, 5418, -1, -1, -1, -1, -1, 5424, 5425, 5426, 5427, 5428, 5429, 5430, 5431, 5432, 5433, 5434, 5435, 5436, 5437, 5438, 5439, -1, -1, -1, -1, 5444, -1, -1, 5447, 5448, 5449, -1, -1, -1, -1, 5454, -1, -1, 5457, -1, -1, 5460, -1, -1, 5463, -1, -1, 5466, 5467, -1, -1, -1, 5471, -1, -1, 5474, -1, -1, 5477, -1, -1, 5480, -1, -1, 5483, 5484, 5485, 5486, 5487, 5488, 5489, 5490, 5491, 5492, 5493, 5494, 5495, 5496, -1, -1, -1, -1, -1, -1, -1, 5504, -1, -1, -1, -1, 5509, 5510, 5511, 5512, 5513, 5514, -1, -1, -1, -1, -1, -1, -1, 5522, 5523, -1, -1, -1, 5527, -1, -1, 5530, -1, -1, 5533, -1, -1, 5536, 5537, 5538, 5539, 5540, 5541, 5542, 5543, 5544, 5545, 5546, 5547, 5548, 5549, -1, -1, -1, -1, 5554, -1, -1, 5557, -1, -1, 5560, -1, -1, -1, -1, 5565, 5566, 5567, 5568, 5569, 5570, -1, -1, -1, -1, -1, -1, -1, 5578, -1, -1, 5581, -1, -1, 5584, -1, -1, 5587, -1, -1, 5590, -1, -1, 5593, 5594, 5595, 5596, 5597, 5598, 5599, 5600, 5601, 5602, 5603, 5604, 5605, 5606, 5607, 5608, -1, -1, 5611, -1, -1, 5614, 5615, -1, -1, -1, 5619, 5620, -1, -1, 5623, -1, -1, 5626, 5627, 5628, -1, -1, 5631, -1, -1, 5634, -1, -1, 5637, 5638, 5639, -1, -1, -1, 5643, -1, -1, 5646, 5647, 5648, -1, -1, -1, 5652, -1, -1, 5655, 5656, 5657, 5658, 5659, 5660, -1, -1, 5663, -1, -1, -1, 5667, -1, -1, 5670, -1, -1, 5673, -1, -1, 5676, 5677, 5678, 5679, -1, -1, 5682, -1, -1, -1, 5686, 5687, -1, -1, -1, 5691, 5692, 5693, -1, -1, -1, 5697, 5698, -1, -1, -1, 5702, 5703, 5704, 5705, -1, -1, 5708, -1, -1, 5711, -1, -1, 5714, 5715, -1, -1, -1, 5719, 5720, 5721, 5722, -1, -1, -1, 5726, 5727, -1, -1, -1, 5731, -1, -1, 5734, 5735, 5736, -1, -1, 5739, -1, -1, 5742, -1, -1, 5745, 5746, 5747, -1, -1, 5750, -1, -1, 5753, -1, -1, 5756, 5757, 5758, -1, -1, 5761, -1, -1, 5764, -1, -1, 5767, 5768, 5769, -1, -1, 5772, -1, -1, 5775, 5776, -1, -1, -1, 5780, 5781, 5782, 5783, 5784, 5785, 5786, 5787, -1, -1, -1, 5791, -1, -1, 5794, -1, 5796, -1, -1, 5799, 5800, -1, -1, 5803, -1, -1, 5806, 5807, 5808, 5809, -1, -1, -1, 5813, 5814, -1, -1, -1, 5818, 5819, -1, -1, -1, 5823, 5824, 5825, 5826, -1, -1, -1, -1, 5831, 5832, -1, -1, -1, 5836, 5837, 5838, 5839, -1, -1, -1, 5843, -1, -1, 5846, 5847, -1, -1, -1, 5851, 5852, 5853, 5854, 5855, 5856, 5857, 5858, 5859, 5860, 5861, 5862, 5863, 5864, 5865, 5866, 5867, 5868, 5869, -1, -1, -1, -1, -1, 5875, 5876, 5877, 5878, -1, -1, -1, -1, -1, 5884, -1, -1, 5887, -1, -1, 5890, -1, -1, 5893, -1, -1, 5896, -1, -1, 5899, -1, -1, 5902, -1, -1, 5905, 5906, 5907, 5908, 5909, 5910, 5911, 5912, 5913, 5914, 5915, -1, -1, -1, -1, -1, -1, -1, -1, -1, -1, -1, -1, 5928, 5929, 5930, 5931, 5932, 5933, 5934, 5935, 5936, 5937, 5938, -1, -1, -1, -1, -1, -1, -1, -1, -1, -1, -1, -1, 5951, 5952, 5953, 5954, 5955, 5956, 5957, 5958, 5959, 5960, 5961, -1, -1, 5964, 5965, 5966, 5967, -1, -1, -1, -1, -1, -1, -1, 5975, -1, -1, -1, -1, 5980, 5981, 5982, 5983, 5984, 5985, 5986, 5987, 5988, -1, -1, -1, -1, -1, -1, -1, -1, -1, -1, 5999, 6000, -1, -1, -1, 6004, -1, -1, 6007, 6008, 6009, 6010, 6011, 6012, 6013, -1, -1, -1, -1, -1, -1, -1, -1, 6022, 6023, 6024, 6025, 6026, 6027, 6028, 6029, 6030, 6031, 6032, 6033, -1, -1, -1, -1, -1, -1, -1, -1, -1, -1, 6044, 6045, 6046, 6047, 6048, 6049, 6050, 6051, 6052, -1, -1, -1, -1, -1, -1, -1, -1, -1, -1, 6063, -1, -1, 6066, -1, -1, 6069, 6070, 6071, 6072, 6073, -1, -1, -1, -1, -1, 6079, 6080, 6081, -1, -1, -1, -1, 6086, 6087, 6088, 6089, 6090, 6091, 6092, 6093, 6094, 6095, 6096, 6097, -1, 6099, -1, -1, -1, -1, 6104, 6105, 6106, 6107, 6108, -1, -1, -1, -1, -1, -1, 6115, -1, -1, -1, 6119, 6120, -1, -1, -1, 6124, 6125, -1, -1, -1, -1, 6130, 6131, -1, -1, -1, 6135, 6136, 6137, 6138, 6139, 6140, 6141, 6142, 6143, 6144, 6145, -1, -1, -1, -1, -1, -1, -1, -1, -1, -1, -1, -1, 6158, 6159, 6160, -1, -1, -1, -1, 6165, 6166, 6167, 6168, 6169, 6170, -1, -1, -1, 6174, -1, -1, 6177, 6178, -1, -1, -1, 6182, 6183, -1, -1, -1, 6187, 6188, -1, -1, -1, 6192, 6193, 6194, 6195, 6196, 6197, 6198, 6199, 6200, 6201, 6202, 6203, 6204, 6205, 6206, 6207, 6208, 6209, 6210, 6211, -1, -1, 6214, -1, -1, -1, -1, -1, 6220, 6221, 6222, 6223, -1, -1, -1, -1, -1, -1, 6230, -1, -1, -1, 6234, -1, -1, 6237, -1, -1, 6240, 6241, 6242, 6243, 6244, 6245, 6246, 6247, 6248, 6249, 6250, -1, -1, -1, 6254, -1, -1, -1, -1, 6259, 6260, 6261, 6262, -1, -1, -1, -1, -1, 6268, -1, -1, 6271, -1, -1, 6274, -1, -1, 6277, 6278, -1, -1, -1, 6282, 6283, -1, -1, -1, 6287, 6288, 6289, 6290, 6291, 6292, 6293, 6294, 6295, 6296, 6297, -1, -1, -1, -1, -1, -1, -1, -1, -1, -1, 6308, 6309, 6310, 6311, 6312, 6313, 6314, 6315, -1, -1, -1, -1, -1, -1, -1, -1, -1, 6325, -1, -1, 6328, 6329, 6330, 6331, -1, -1, -1, -1, 6336, 6337, -1, -1, -1, 6341, 6342, 6343, -1, -1, 6346, -1, -1, 6349, -1, -1, 6352, 6353, 6354, -1, -1, 6357, -1, -1, 6360, -1, -1, 6363, 6364, 6365, 6366, 6367, 6368, 6369, 6370, 6371, 6372, 6373, 6374, 6375, 6376, -1, -1, -1, -1, -1, -1, -1, -1, -1, -1, -1, -1, -1, 6390, 6391, 6392, 6393, 6394, 6395, 6396, 6397, 6398, 6399, 6400, 6401, -1, -1, -1, -1, -1, -1, -1, -1, -1, -1, -1, -1, -1, 6415, 6416, 6417, 6418, 6419, 6420, 6421, 6422, 6423, 6424, 6425, 6426, -1, -1, -1, -1, -1, -1, -1, -1, -1, -1, -1, -1, -1, 6440, 6441, 6442, 6443, 6444, 6445, 6446, 6447, 6448, 6449, 6450, 6451, 6452, 6453, 6454, -1, -1, -1, -1, -1, -1, 6461, 6462, 6463, 6464, 6465, -1, -1, -1, -1, -1, -1, 6472, -1, -1, 6475, 6476, -1, -1, -1, 6480, -1, -1, 6483, -1, -1, 6486, -1, -1, 6489, -1, -1, 6492, 6493, 6494, 6495, 6496, 6497, 6498, 6499, 6500, 6501, -1, -1, -1, -1, -1, -1, -1, -1, -1, -1, -1, 6513, 6514, -1, -1, -1, 6518, 6519, 6520, -1, -1, -1, -1, 6525, 6526, 6527, 6528, 6529, 6530, -1, -1, 6533, -1, -1, 6536, -1, -1, -1, 6540, -1, -1, 6543, 6544, 6545, -1, -1, -1, -1, 6550, 6551, 6552, 6553, 6554, 6555, 6556, 6557, 6558, 6559, 6560, 6561, 6562, 6563, 6564, 6565, -1, -1, -1, 6569, -1, -1, 6572, -1, -1, 6575, -1, -1, 6578, -1, -1, 6581, -1, -1, 6584, -1, -1, 6587, -1, -1, 6590, -1, -1, 6593, -1, -1, 6596, -1, -1, 6599, -1, -1, 6602, -1, -1, 6605, -1, -1, 6608, 6609, 6610, 6611, 6612, 6613, 6614, 6615, 6616, 6617, 6618, 6619, 6620, -1, -1, -1, -1, -1, -1, -1, -1, -1, -1, -1, -1, -1, -1, 6635, 6636, 6637, 6638, 6639, 6640, 6641, 6642, 6643, 6644, 6645, 6646, 6647, 6648, 6649, 6650, -1, -1, -1, -1, -1, -1, -1, -1, -1, -1, 6661, 6662, 6663, 6664, 6665, 6666, 6667, 6668, 6669, 6670, 6671, -1, -1, -1, -1, -1, -1, -1, -1, -1, -1, -1, -1, 6684, -1, -1, 6687, 6688, 6689, 6690, 6691, 6692, 6693, 6694, 6695, -1, -1, -1, -1, -1, -1, -1, -1, 6704, 6705, 6706, 6707, 6708, -1, -1, -1, -1, -1, -1, -1, 6716, 6717, 6718, 6719, 6720, -1, -1, 6723, -1, -1, 6726, -1, -1, -1, -1, 6731, 6732, 6733, -1, -1, -1, -1, 6738, 6739, 6740, -1, -1, -1, 6744, -1, -1, 6747, 6748, 6749, 6750, 6751, 6752, 6753, 6754, 6755, 6756, 6757, 6758, 6759, 6760, 6761, 6762, -1, -1, -1, -1, -1, -1, -1, -1, -1, 6772, 6773, 6774, 6775, 6776, 6777, 6778, -1, -1, -1, -1, -1, -1, -1, -1, 6787, -1, -1, 6790, -1, -1, 6793, -1, -1, 6796, -1, -1, 6799, -1, -1, 6802, -1, -1, 6805, 6806, 6807, 6808, 6809, 6810, 6811, 6812, 6813, 6814, 6815, 6816, 6817, -1, -1, -1, -1, -1, -1, -1, -1, -1, -1, -1, -1, -1, -1, 6832, 6833, 6834, 6835, 6836, 6837, 6838, 6839, 6840, 6841, 6842, 6843, 6844, 6845, 6846, 6847, 6848, -1, -1, 6851, -1, -1, -1, 6855, -1, -1, -1, -1, 6860, -1, -1, -1, 6864, -1, -1, -1, -1, -1, -1, -1, 6872, -1, -1, 6875, 6876, 6877, 6878, -1, -1, -1, 6882, 6883, 6884, 6885, 6886, 6887, 6888, 6889, 6890, 6891, -1, -1, -1, -1, -1, -1, -1, -1, -1, -1, -1, -1, 6904, 6905, 6906, -1, -1, -1, 6910, 6911, 6912, 6913, 6914, 6915, 6916, 6917, 6918, 6919, 6920, 6921, -1, -1, -1, -1, -1, -1, -1, -1, -1, -1, -1, -1, -1, 6935, 6936, 6937, 6938, 6939, 6940, 6941, 6942, 6943, 6944, 6945, 6946, 6947, 6948, 6949, 6950, 6951, 6952, 6953, 6954, 6955, 6956, 6957, 6958, -1, -1, -1, -1, -1, 6964, -1, -1, -1, -1, 6969, 6970, 6971, 6972, -1, -1, -1, -1, -1, 6978, 6979, 6980, 6981, 6982, 6983, -1, -1, -1, -1, -1, -1, -1, 6991, 6992, -1, -1, -1, 6996, 6997, -1, -1, -1, 7001, 7002, 7003, -1, -1, -1, -1, 7008, 7009, 7010, -1, -1, -1, -1, 7015, 7016, 7017, 7018, 7019, 7020, 7021, 7022, 7023, 7024, 7025, 7026, 7027, -1, -1, -1, -1, -1, -1, -1, -1, -1, 7037, 7038, 7039, 7040, 7041, -1, -1, -1, -1, -1, -1, 7048, -1, -1, 7051, -1, -1, 7054, 7055, 7056, 7057, 7058, 7059, 7060, 7061, 7062, -1, -1, -1, -1, -1, -1, -1, -1, -1, -1, 7073, 7074, -1, -1, -1, 7078, 7079, 7080, 7081, 7082, 7083, 7084, 7085, 7086, 7087, 7088, 7089, 7090, 7091, -1, -1, -1, -1, -1, -1, -1, 7099, 7100, 7101, 7102, 7103, 7104, -1, -1, -1, -1, -1, -1, -1, 7112, -1, -1, 7115, 7116, 7117, 7118, 7119, 7120, 7121, 7122, -1, -1, -1, -1, 7127, 7128, 7129, -1, -1, -1, -1, -1, 7135, -1, -1, 7138, -1, -1, 7141, -1, -1, 7144, 7145, 7146, 7147, 7148, 7149, 7150, -1, -1, -1, -1, -1, -1, 7157, -1, -1, -1, 7161, 7162, 7163, -1, -1, 7166, -1, -1, -1, 7170, 7171, 7172, -1, -1, -1, 7176, -1, -1, 7179, 7180, 7181, 7182, 7183, 7184, 7185, 7186, 7187, 7188, -1, -1, -1, -1, -1, -1, -1, -1, -1, 7198, 7199, 7200, 7201, 7202, 7203, 7204, 7205, -1, -1, -1, -1, -1, -1, -1, -1, -1, 7215, -1, -1, 7218, 7219, 7220, 7221, -1, -1, -1, 7225, -1, -1, 7228, -1, -1, 7231, 7232, 7233, 7234, 7235, 7236, 7237, 7238, 7239, 7240, 7241, 7242, 7243, 7244, 7245, -1, -1, -1, -1, -1, -1, -1, -1, 7254, 7255, 7256, 7257, 7258, 7259, 7260, -1, -1, -1, -1, -1, -1, -1, -1, 7269, 7270, 7271, 7272, 7273, 7274, 7275, 7276, -1, -1, -1, -1, -1, -1, -1, 7284, 7285, 7286, 7287, 7288, 7289, -1, -1, -1, -1, -1, -1, -1, 7297, -1, -1, 7300, 7301, 7302, 7303, 7304, 7305, 7306, 7307, -1, -1, -1, -1, 7312, -1, -1, -1, 7316, -1, -1, 7319, -1, -1, 7322, -1, -1, 7325, 7326, 7327, 7328, 7329, 7330, 7331, 7332, 7333, -1, -1, 7336, -1, -1, 7339, -1, -1, 7342, -1, -1, 7345, 7346, 7347, -1, -1, -1, -1, 7352, 7353, -1, -1, -1, 7357, -1, -1, 7360, 7361, -1, -1, -1, 7365, 7366, -1, -1, -1, 7370, 7371, 7372, 7373, 7374, 7375, 7376, 7377, -1, -1, -1, -1, -1, -1, -1, 7385, 7386, -1, -1, -1, 7390, -1, -1, 7393, 7394, 7395, 7396, 7397, -1, -1, -1, -1, 7402, 7403, -1, -1, -1, 7407, 7408, -1, -1, -1, 7412, 7413, 7414, 7415, -1, -1, -1, 7419, 7420, 7421, -1, -1, -1, -1, 7426, 7427, -1, -1, -1, 7431, 7432, 7433, 7434, 7435, -1, -1, -1, -1, 7440, 7441, 7442, -1, -1, -1, -1, 7447, 7448, -1, -1, -1, 7452, 7453, 7454, 7455, 7456, 7457, 7458, 7459, 7460, 7461, 7462, 7463, 7464, 7465, -1, -1, -1, -1, -1, -1, -1, -1, -1, 7475, 7476, 7477, 7478, 7479, 7480, -1, -1, -1, -1, -1, -1, -1, 7488, -1, -1, 7491, -1, -1, -1, -1, 7496, 7497, 7498, 7499, 7500, 7501, 7502, 7503, 7504, -1, -1, -1, -1, -1, -1, -1, -1, -1, -1, 7515, 7516, 7517, 7518, 7519, 7520, 7521, -1, -1, 7524, 7525, -1, -1, -1, 7529, -1, -1, 7532, -1, -1, 7535, -1, -1, 7538, 7539, 7540, -1, -1, 7543, -1, -1, -1, 7547, 7548, 7549, 7550, -1, -1, -1, 7554, 7555, -1, -1, -1, 7559, 7560, 7561, -1, -1, -1, -1, 7566, 7567, 7568, 7569, 7570, 7571, 7572, 7573, 7574, 7575, 7576, 7577, 7578, 7579, 7580, 7581, 7582, -1, -1, -1, -1, -1, -1, -1, -1, -1, 7592, 7593, 7594, 7595, 7596, 7597, -1, -1, -1, -1, -1, -1, -1, 7605, -1, -1, 7608, -1, -1, -1, 7612, -1, -1, 7615, 7616, 7617, -1, -1, -1, -1, 7622, 7623, 7624, 7625, 7626, 7627, 7628, 7629, 7630, 7631, -1, -1, -1, -1, -1, -1, -1, -1, 7640, 7641, 7642, -1, -1, -1, -1, 7647, -1, -1, 7650, -1, -1, 7653, 7654, 7655, 7656, 7657, 7658, 7659, 7660, 7661, 7662, 7663, 7664, -1, -1, -1, -1, -1, -1, -1, -1, -1, -1, -1, -1, 7677, 7678, 7679, 7680, 7681, -1, -1, -1, -1, -1, -1, 7688, 7689, 7690, 7691, 7692, 7693, 7694, 7695, 7696, 7697, 7698, 7699, 7700, 7701, -1, -1, 7704, -1, -1, 7707, -1, -1, 7710, -1, -1, 7713, -1, -1, 7716, -1, -1, 7719, 7720, 7721, 7722, -1, -1, -1, -1, -1, 7728, 7729, -1, -1, -1, 7733, -1, -1, 7736, -1, -1, 7739, 7740, -1, -1, -1, 7744, 7745, 7746, -1, -1, -1, -1, 7751, 7752, -1, -1, -1, 7756, 7757, 7758, -1, -1, -1, -1, 7763, 7764, 7765, 7766, 7767, 7768, 7769, 7770, 7771, 7772, 7773, 7774, 7775, 7776, 7777, 7778, 7779, -1, -1, 7782, -1, -1, 7785, -1, -1, 7788, -1, -1, 7791, -1, -1, -1, 7795, -1, -1, -1, -1, 7800, 7801, 7802, 7803, 7804, 7805, 7806, -1, 7808, 7809, -1, -1, -1, 7813, -1, -1, -1, -1, -1, -1, 7820, -1, -1, 7823, -1, -1, 7826, 7827, 7828, 7829, 7830, 7831, 7832, 7833, 7834, 7835, -1, -1, -1, -1, -1, -1, -1, -1, -1, 7845, 7846, 7847, 7848, 7849, -1, -1, -1, -1, -1, -1, 7856, -1, -1, 7859, 7860, -1, -1, -1, 7864, 7865, 7866, 7867, 7868, 7869, 7870, -1, -1, -1, 7874, -1, -1, -1, -1, -1, 7880, 7881, 7882, 7883, 7884, 7885, 7886, 7887, 7888, 7889, -1, -1, -1, -1, -1, -1, -1, -1, -1, -1, -1, 7901, 7902, 7903, 7904, 7905, 7906, 7907, -1, -1, -1, -1, -1, -1, 7914, -1, -1, -1, 7918, 7919, 7920, 7921, -1, -1, -1, 7925, 7926, -1, -1, -1, 7930, -1, -1, 7933, 7934, 7935, 7936, 7937, 7938, 7939, 7940, 7941, 7942, 7943, 7944, 7945, 7946, -1, -1, -1, -1, -1, -1, -1, -1, 7955, 7956, 7957, 7958, 7959, 7960, 7961, -1, -1, -1, -1, -1, -1, -1, -1, 7970, -1, -1, 7973, -1, -1, 7976, -1, -1, -1, 7980, 7981, 7982, 7983, 7984, 7985, 7986, 7987, -1, -1, -1, -1, -1, -1, -1, -1, -1, 7997, -1, -1, 8000, 8001, 8002, 8003, 8004, 8005, 8006, 8007, 8008, 8009, 8010, 8011, 8012, 8013, 8014, 8015, -1, -1, 8018, 8019, -1, -1, 8022, -1, -1, 8025, 8026, -1, -1, 8029, -1, -1, 8032, 8033, -1, -1, 8036, -1, -1, 8039, 8040, 8041, -1, -1, 8044, -1, -1, -1, 8048, 8049, 8050, -1, -1, 8053, -1, -1, -1, 8057, -1, 8059, -1, -1, 8062, 8063, 8064, 8065, -1, -1, -1, -1, 8070, 8071, 8072, -1, -1, -1, -1, 8077, 8078, 8079, -1, -1, -1, 8083, -1, -1, 8086, 8087, -1, -1, -1, 8091, 8092, 8093, -1, -1, -1, -1, 8098, 8099, 8100, -1, -1, 8103, -1, -1, 8106, -1, -1, 8109, 8110, 8111, 8112, -1, -1, -1, 8116, 8117, -1, -1, -1, -1, 8122, 8123, 8124, 8125, 8126, 8127, 8128, 8129, 8130, 8131, 8132, -1, -1, -1, 8136, -1, -1, 8139, -1, -1, 8142, 8143, -1, -1, -1, 8147, 8148, -1, -1, -1, -1, 8153, -1, -1, 8156, -1, -1, 8159, 8160, -1, -1, -1, 8164, 8165, -1, -1, -1, 8169, 8170, 8171, 8172, -1, -1, 8175, -1, -1, -1, -1, 8180, 8181, 8182, 8183, -1, -1, 8186, -1, -1, 8189, -1, -1, 8192, -1, -1, 8195, 8196, 8197, 8198, 8199, 8200, 8201, 8202, 8203, 8204, 8205, 8206, 8207, 8208, 8209, 8210, 8211, 8212, -1, -1, 8215, -1, -1, -1, -1, -1, 8221, -1, -1, -1, 8225, 8226, 8227, 8228, 8229, 8230, -1, -1, -1, -1, -1, -1, -1, 8238, 8239, -1, -1, -1, 8243, -1, -1, 8246, 8247, 8248, 8249, 8250, 8251, 8252, 8253, 8254, -1, -1, -1, -1, -1, -1, -1, -1, -1, 8264, 8265, 8266, 8267, -1, -1, -1, -1, -1, 8273, 8274, 8275, 8276, 8277, 8278, 8279, 8280, 8281, 8282, -1, -1, -1, -1, -1, -1, -1, -1, -1, 8292, 8293, 8294, 8295, 8296, 8297, 8298, 8299, -1, -1, -1, -1, -1, -1, -1, -1, -1, 8309, 8310, 8311, -1, -1, -1, -1, 8316, 8317, 8318, 8319, 8320, 8321, 8322, 8323, 8324, 8325, -1, -1, -1, -1, 8330, -1, -1, -1, 8334, -1, -1, -1, 8338, 8339, 8340, 8341, 8342, -1, -1, -1, -1, -1, -1, 8349, -1, -1, 8352, -1, -1, 8355, 8356, 8357, 8358, 8359, -1, -1, -1, -1, 8364, 8365, -1, -1, -1, 8369, 8370, -1, -1, -1, 8374, 8375, 8376, 8377, 8378, -1, -1, -1, 8382, -1, -1, 8385, -1, -1, -1, 8389, 8390, 8391, 8392, -1, -1, -1, -1, 8397, 8398, -1, -1, -1, 8402, 8403, 8404, 8405, 8406, 8407, 8408, 8409, 8410, 8411, 8412, 8413, 8414, 8415, -1, -1, -1, 8419, 8420, -1, -1, -1, 8424, -1, -1, 8427, -1, -1, 8430, -1, -1, 8433, 8434, 8435, 8436, -1, -1, -1, -1, -1, 8442, 8443, -1, -1, -1, 8447, 8448, -1, -1, -1, 8452, 8453, -1, -1, -1, 8457, 8458, -1, -1, -1, 8462, 8463, -1, -1, -1, 8467, 8468, 8469, -1, -1, -1, -1, 8474, 8475, -1, -1, -1, 8479, 8480, 8481, 8482, 8483, 8484, 8485, 8486, 8487, 8488, 8489, 8490, 8491, 8492, -1, -1, 8495, -1, -1, -1, -1, -1, -1, 8502, 8503, -1, -1, -1, 8507, 8508, 8509, 8510, 8511, -1, -1, -1, -1, -1, -1, 8518, 8519, -1, -1, -1, 8523, 8524, -1, -1, -1, 8528, 8529, -1, -1, -1, 8533, 8534, -1, -1, -1, 8538, 8539, 8540, -1, -1, -1, -1, 8545, 8546, -1, -1, -1, 8550, 8551, 8552, 8553, 8554, 8555, 8556, 8557, 8558, 8559, -1, -1, 8562, -1, -1, 8565, -1, -1, 8568, 8569, -1, -1, -1, 8573, 8574, 8575, 8576, -1, -1, -1, 8580, -1, -1, 8583, 8584, -1, -1, -1, 8588, 8589, 8590, 8591, -1, -1, -1, -1, 8596, 8597, 8598, -1, -1, -1, -1, 8603, 8604, 8605, -1, -1, -1, 8609, -1, -1, 8612, 8613, 8614, 8615, 8616, 8617, -1, -1, -1, 8621, 8622, -1, -1, -1, 8626, -1, -1, -1, 8630, -1, -1, 8633, 8634, 8635, 8636, 8637, 8638, 8639, 8640, 8641, -1, -1, -1, 8645, 8646, -1, -1, -1, -1, -1, 8652, -1, -1, -1, 8656, 8657, 8658, -1, -1, -1, -1, 8663, 8664, -1, -1, -1, -1, 8669, 8670, 8671, 8672, 8673, 8674, 8675, 8676, 8677, 8678, -1, -1, 8681, -1, -1, 8684, -1, -1, 8687, 8688, -1, -1, -1, 8692, 8693, 8694, -1, -1, -1, -1, 8699, -1, 8701, -1, -1, 8704, 8705, 8706, -1, -1, -1, -1, 8711, 8712, 8713, 8714, -1, -1, 8717, -1, -1, 8720, -1, -1, 8723, -1, -1, 8726, 8727, 8728, 8729, 8730, -1, -1, -1, 8734, 8735, -1, -1, -1, 8739, -1, -1, 8742, 8743, 8744, -1, -1, -1, -1, 8749, 8750, 8751, 8752, 8753, 8754, 8755, 8756, -1, -1, -1, 8760, -1, -1, 8763, -1, -1, 8766, 8767, -1, -1, -1, 8771, 8772, -1, -1, -1, 8776, 8777, -1, -1, -1, 8781, 8782, -1, -1, -1],"rChilds": [6934, 5037, 3844, 2009, 868, 545, 388, 303, 234, 213, 190, 123, 118, 113, 106, 81, 50, 49, 44, 35, 34, 33, 32, 31, 30, 29, 28, -1, -1, -1, -1, -1, -1, -1, -1, 43, 42, 41, 40, -1, -1, -1, -1, -1, 48, 47, -1, -1, -1, -1, 80, 77, 76, 75, 72, 65, 64, 63, 62, 61, -1, -1, -1, -1, -1, 71, 70, 69, -1, -1, -1, -1, 74, -1, -1, -1, -1, 79, -1, -1, -1, 97, 96, 95, 94, 93, 92, 89, -1, 91, -1, -1, -1, -1, -1, -1, -1, 105, 104, 103, 102, -1, -1, -1, -1, -1, 112, 111, 110, -1, -1, -1, -1, 117, 116, -1, -1, -1, 122, 121, -1, -1, -1, 173, 162, 161, 158, 155, 146, 145, 144, 143, 142, 141, 140, 139, 138, -1, -1, -1, -1, -1, -1, -1, -1, -1, 154, 153, 152, 151, -1, -1, -1, -1, -1, 157, -1, -1, 160, -1, -1, -1, 172, 171, 170, 169, 168, -1, -1, -1, -1, -1, -1, 189, 188, 185, 184, 183, 182, 181, -1, -1, -1, -1, -1, 187, -1, -1, -1, -1, 210, 205, 200, 197, 196, -1, -1, 199, -1, -1, 204, 203, -1, -1, -1, 209, 208, -1, -1, -1, 212, -1, -1, 229, 228, 227, 220, 219, -1, -1, 226, 225, 224, -1, -1, -1, -1, -1, -1, 233, 232, -1, -1, -1, 282, 279, 270, 267, 266, 265, 260, 259, 258, 257, 254, 253, 250, 249, -1, -1, 252, -1, -1, -1, 256, -1, -1, -1, -1, -1, 264, 263, -1, -1, -1, -1, -1, 269, -1, -1, 278, 277, 276, 275, -1, -1, -1, -1, -1, 281, -1, -1, 300, 299, 298, 297, 296, 295, 294, 293, 292, -1, -1, -1, -1, -1, -1, -1, -1, -1, 302, -1, -1, 371, 368, 357, 356, 353, 352, 351, 350, 349, 348, 341, 326, 325, 318, -1, 324, 323, 322, -1, -1, -1, -1, -1, 340, 339, 338, 337, 334, 333, -1, -1, 336, -1, -1, -1, -1, -1, -1, 345, 344, -1, -1, 347, -1, -1, -1, -1, -1, -1, -1, 355, -1, -1, -1, 367, 366, 365, 364, 363, -1, -1, -1, -1, -1, -1, 370, -1, -1, 383, 382, 381, 376, -1, 380, 379, -1, -1, -1, -1, -1, 387, 386, -1, -1, -1, 506, 503, 500, 493, 454, 443, 440, 439, 438, 431, 428, 427, 424, 421, 410, 407, 406, -1, -1, 409, -1, -1, 418, 415, 414, -1, -1, 417, -1, -1, 420, -1, -1, 423, -1, -1, 426, -1, -1, -1, 430, -1, -1, 435, 434, -1, -1, 437, -1, -1, -1, -1, 442, -1, -1, 451, 446, -1, 450, 449, -1, -1, -1, 453, -1, -1, 488, 479, 478, 473, 472, 471, 470, 469, 468, 467, 466, -1, -1, -1, -1, -1, -1, -1, -1, 477, 476, -1, -1, -1, -1, 487, 486, 485, 484, -1, -1, -1, -1, -1, 492, 491, -1, -1, -1, 497, 496, -1, -1, 499, -1, -1, 502, -1, -1, 505, -1, -1, 540, 539, 538, 529, 526, 525, 524, 523, 522, 521, 520, 519, -1, -1, -1, -1, -1, -1, -1, -1, 528, -1, -1, 537, 536, 535, 534, -1, -1, -1, -1, -1, -1, -1, 544, 543, -1, -1, -1, 845, 792, 731, 722, 721, 700, 691, 662, 655, 642, 635, 624, 601, 596, 591, 580, 571, 570, 569, 568, 567, -1, -1, -1, -1, -1, 579, 578, 577, 576, -1, -1, -1, -1, -1, 588, 587, 586, 585, -1, -1, -1, -1, 590, -1, -1, 595, 594, -1, -1, -1, 600, 599, -1, -1, -1, 623, 622, 619, 612, 611, 610, 609, -1, -1, -1, -1, 618, 617, 616, -1, -1, -1, -1, 621, -1, -1, -1, -1, 632, 629, 628, -1, -1, 631, -1, -1, 634, -1, -1, 641, 638, -1, 640, -1, -1, -1, 650, 649, 648, 647, -1, -1, -1, -1, 654, 653, -1, -1, -1, 659, 658, -1, -1, 661, -1, -1, 680, 679, 678, 675, 674, 671, 670, -1, -1, 673, -1, -1, -1, 677, -1, -1, -1, -1, 690, 689, 688, 687, 686, -1, -1, -1, -1, -1, -1, 699, 698, 697, 696, -1, -1, -1, -1, -1, 718, 717, 714, 713, 710, 709, 708, -1, -1, -1, 712, -1, -1, -1, 716, -1, -1, -1, 720, -1, -1, -1, 730, 729, 728, 727, -1, -1, -1, -1, -1, 787, 780, 775, 772, 771, 770, 769, 766, 759, 756, 753, 750, 749, 748, 747, -1, -1, -1, -1, 752, -1, -1, 755, -1, -1, 758, -1, -1, 765, 764, 763, -1, -1, -1, -1, 768, -1, -1, -1, -1, -1, 774, -1, -1, 779, 778, -1, -1, -1, 786, 785, 784, -1, -1, -1, -1, 791, 790, -1, -1, -1, 840, 835, 828, 825, 824, 817, 816, 815, 814, 813, 812, 811, 810, 809, 808, -1, -1, -1, -1, -1, -1, -1, -1, -1, -1, 823, 822, 821, -1, -1, -1, -1, -1, 827, -1, -1, 834, 833, 832, -1, -1, -1, -1, 839, 838, -1, -1, -1, 844, 843, -1, -1, -1, 865, 864, 859, 854, 853, 852, -1, -1, -1, 858, 857, -1, -1, -1, 863, 862, -1, -1, -1, -1, 867, -1, -1, 1820, 1609, 1504, 1301, 1216, 1199, 1070, 1051, 1040, 1027, 982, 959, 946, 939, 934, 907, 900, 899, 898, 897, 896, 895, 894, 893, -1, -1, -1, -1, -1, -1, -1, -1, 906, 905, 904, -1, -1, -1, -1, 933, 932, 929, 926, 923, 920, 917, 916, -1, -1, 919, -1, -1, 922, -1, -1, 925, -1, -1, 928, -1, -1, 931, -1, -1, -1, -1, 936, -1, 938, -1, -1, 943, 942, -1, -1, 945, -1, -1, 958, 955, 954, 951, -1, 953, -1, -1, -1, 957, -1, -1, -1, 981, 974, 973, 972, 971, 970, 969, 968, -1, -1, -1, -1, -1, -1, -1, 980, 979, 978, -1, -1, -1, -1, -1, 1010, 1009, 1008, 1007, 1004, 1001, 998, 995, 994, 993, -1, -1, -1, 997, -1, -1, 1000, -1, -1, 1003, -1, -1, 1006, -1, -1, -1, -1, -1, 1026, 1025, 1024, 1023, 1022, 1021, 1020, 1019, -1, -1, -1, -1, -1, -1, -1, -1, -1, 1035, 1032, 1031, -1, -1, 1034, -1, -1, 1039, 1038, -1, -1, -1, 1046, 1045, 1044, -1, -1, -1, 1050, 1049, -1, -1, -1, 1067, 1062, 1061, 1058, 1057, -1, -1, 1060, -1, -1, -1, 1066, 1065, -1, -1, -1, 1069, -1, -1, 1190, 1181, 1172, 1147, 1140, 1133, 1128, 1123, 1118, 1111, 1104, 1101, 1094, 1091, 1088, 1087, -1, -1, 1090, -1, -1, 1093, -1, -1, 1100, 1099, 1098, -1, -1, -1, -1, 1103, -1, -1, 1108, 1107, -1, -1, 1110, -1, -1, 1115, 1114, -1, -1, 1117, -1, -1, 1120, -1, 1122, -1, -1, 1127, 1126, -1, -1, -1, 1132, 1131, -1, -1, -1, 1137, 1136, -1, -1, 1139, -1, -1, 1144, 1143, -1, -1, 1146, -1, -1, 1169, 1168, 1167, 1166, 1165, 1164, 1163, 1162, 1161, 1160, 1159, -1, -1, -1, -1, -1, -1, -1, -1, -1, -1, -1, 1171, -1, -1, 1178, 1177, 1176, -1, -1, -1, 1180, -1, -1, 1187, 1186, 1185, -1, -1, -1, 1189, -1, -1, 1198, 1197, 1196, 1195, -1, -1, -1, -1, -1, 1215, 1210, 1209, 1208, 1205, -1, 1207, -1, -1, -1, -1, 1214, 1213, -1, -1, -1, -1, 1298, 1295, 1288, 1263, 1258, 1253, 1252, 1249, 1248, 1247, 1242, 1239, 1238, 1237, 1236, 1235, 1234, -1, -1, -1, -1, -1, -1, 1241, -1, -1, 1246, 1245, -1, -1, -1, -1, -1, 1251, -1, -1, -1, 1257, 1256, -1, -1, -1, 1262, 1261, -1, -1, -1, 1279, 1278, 1277, 1274, 1273, 1272, 1271, -1, -1, -1, -1, 1276, -1, -1, -1, -1, 1287, 1286, 1285, 1284, -1, -1, -1, -1, -1, 1292, 1291, -1, -1, 1294, -1, -1, 1297, -1, -1, 1300, -1, -1, 1441, 1406, 1401, 1390, 1381, 1378, 1377, 1372, 1367, 1350, 1323, 1322, 1321, 1320, 1319, 1318, -1, -1, -1, -1, -1, -1, 1347, 1338, 1337, 1336, 1335, 1334, 1333, 1332, -1, -1, -1, -1, -1, -1, -1, 1346, 1345, 1344, 1343, -1, -1, -1, -1, -1, 1349, -1, -1, 1366, 1365, 1362, 1361, 1360, 1359, 1358, -1, -1, -1, -1, -1, 1364, -1, -1, -1, -1, 1371, 1370, -1, -1, -1, 1376, 1375, -1, -1, -1, -1, 1380, -1, -1, 1387, 1384, -1, 1386, -1, -1, 1389, -1, -1, 1396, 1395, 1394, -1, -1, -1, 1400, 1399, -1, -1, -1, 1403, -1, 1405, -1, -1, 1440, 1439, 1438, 1435, 1434, 1431, 1428, 1427, 1426, 1425, 1424, 1421, 1420, -1, -1, 1423, -1, -1, -1, -1, -1, -1, 1430, -1, -1, 1433, -1, -1, -1, 1437, -1, -1, -1, -1, -1, 1487, 1486, 1485, 1484, 1481, 1478, 1473, 1472, 1471, 1470, 1461, 1456, 1455, -1, -1, 1460, 1459, -1, -1, -1, 1469, 1468, 1467, 1466, -1, -1, -1, -1, -1, -1, -1, -1, 1477, 1476, -1, -1, -1, 1480, -1, -1, 1483, -1, -1, -1, -1, -1, 1503, 1502, 1501, 1500, 1499, 1498, 1497, 1496, -1, -1, -1, -1, -1, -1, -1, -1, -1, 1606, 1605, 1576, 1569, 1562, 1559, 1552, 1551, 1536, 1535, 1534, 1533, 1530, 1529, 1520, -1, 1528, 1527, 1526, 1525, -1, -1, -1, -1, -1, -1, 1532, -1, -1, -1, -1, -1, 1550, 1549, 1548, 1547, 1546, 1545, 1544, -1, -1, -1, -1, -1, -1, -1, -1, -1, 1558, 1557, 1556, -1, -1, -1, -1, 1561, -1, -1, 1566, 1565, -1, -1, 1568, -1, -1, 1575, 1574, 1573, -1, -1, -1, -1, 1604, 1603, 1600, 1599, 1598, 1583, -1, 1597, 1596, 1595, 1594, 1593, 1592, 1591, -1, -1, -1, -1, -1, -1, -1, -1, -1, -1, 1602, -1, -1, -1, -1, -1, 1608, -1, -1, 1811, 1764, 1749, 1736, 1693, 1688, 1669, 1656, 1653, 1650, 1649, 1646, 1643, 1640, 1637, 1636, 1631, 1630, 1629, -1, -1, -1, 1635, 1634, -1, -1, -1, -1, 1639, -1, -1, 1642, -1, -1, 1645, -1, -1, 1648, -1, -1, -1, 1652, -1, -1, 1655, -1, -1, 1668, 1667, 1666, 1665, 1664, 1663, -1, -1, -1, -1, -1, -1, -1, 1687, 1686, 1683, 1682, 1681, 1680, 1679, 1678, -1, -1, -1, -1, -1, -1, 1685, -1, -1, -1, -1, 1692, 1691, -1, -1, -1, 1733, 1730, 1721, 1718, 1717, 1714, 1713, 1712, 1711, 1710, 1707, 1706, -1, -1, 1709, -1, -1, -1, -1, -1, -1, 1716, -1, -1, -1, 1720, -1, -1, 1729, 1728, 1727, 1726, -1, -1, -1, -1, -1, 1732, -1, -1, 1735, -1, -1, 1748, 1745, 1744, 1743, 1742, -1, -1, -1, -1, 1747, -1, -1, -1, 1759, 1758, 1757, 1756, 1755, -1, -1, -1, -1, -1, 1763, 1762, -1, -1, -1, 1806, 1803, 1802, 1797, 1794, 1787, 1786, 1783, 1782, 1781, 1780, 1779, 1778, -1, -1, -1, -1, -1, -1, 1785, -1, -1, -1, 1793, 1792, 1791, -1, -1, -1, -1, 1796, -1, -1, 1801, 1800, -1, -1, -1, -1, 1805, -1, -1, 1810, 1809, -1, -1, -1, 1819, 1818, 1817, 1816, -1, -1, -1, -1, -1, 1930, 1907, 1862, 1861, 1860, 1853, 1850, 1849, 1848, 1847, 1844, 1837, 1836, 1835, -1, -1, -1, 1843, 1842, 1841, -1, -1, -1, -1, 1846, -1, -1, -1, -1, -1, 1852, -1, -1, 1857, 1856, -1, -1, 1859, -1, -1, -1, -1, 1906, 1905, 1902, 1901, 1892, 1891, 1888, 1887, 1882, 1881, 1880, 1879, 1878, 1877, -1, -1, -1, -1, -1, -1, 1886, 1885, -1, -1, -1, -1, 1890, -1, -1, -1, 1900, 1899, 1898, 1897, -1, -1, -1, -1, -1, -1, 1904, -1, -1, -1, -1, 1929, 1926, 1923, 1922, 1921, 1920, 1919, 1918, 1917, -1, -1, -1, -1, -1, -1, -1, 1925, -1, -1, 1928, -1, -1, -1, 2004, 1999, 1996, 1991, 1986, 1971, 1968, 1965, 1962, 1953, 1952, 1951, 1950, 1949, 1948, 1947, -1, -1, -1, -1, -1, -1, -1, 1961, 1960, 1959, 1958, -1, -1, -1, -1, -1, 1964, -1, -1, 1967, -1, -1, 1970, -1, -1, 1985, 1984, 1983, 1982, 1981, 1980, 1979, -1, -1, -1, -1, -1, -1, -1, -1, 1990, 1989, -1, -1, -1, 1995, 1994, -1, -1, -1, 1998, -1, -1, 2003, 2002, -1, -1, -1, 2008, 2007, -1, -1, -1, 3573, 3410, 3321, 3216, 3151, 3050, 2965, 2748, 2595, 2538, 2365, 2288, 2165, 2150, 2135, 2120, 2103, 2090, 2075, 2062, 2051, 2042, 2039, 2036, 2035, -1, -1, 2038, -1, -1, 2041, -1, -1, 2050, 2047, 2046, -1, -1, 2049, -1, -1, -1, 2059, 2056, 2055, -1, -1, 2058, -1, -1, 2061, -1, -1, 2072, 2071, 2068, 2067, -1, -1, 2070, -1, -1, -1, 2074, -1, -1, 2085, 2080, 2079, -1, -1, 2084, 2083, -1, -1, -1, 2089, 2088, -1, -1, -1, 2098, 2095, 2094, -1, -1, 2097, -1, -1, 2102, 2101, -1, -1, -1, 2115, 2110, 2109, 2108, -1, -1, -1, 2114, 2113, -1, -1, -1, 2119, 2118, -1, -1, -1, 2130, 2125, 2124, -1, -1, 2129, 2128, -1, -1, -1, 2134, 2133, -1, -1, -1, 2145, 2144, 2141, 2140, -1, -1, 2143, -1, -1, -1, 2149, 2148, -1, -1, -1, 2160, 2159, 2156, 2155, -1, -1, 2158, -1, -1, -1, 2164, 2163, -1, -1, -1, 2245, 2236, 2205, 2202, 2183, 2182, 2181, 2180, 2179, 2178, 2177, -1, -1, -1, -1, -1, -1, -1, 2199, 2198, 2195, 2194, 2193, 2192, 2191, -1, -1, -1, -1, -1, 2197, -1, -1, -1, 2201, -1, -1, 2204, -1, -1, 2233, 2220, 2219, 2218, 2217, 2216, 2215, 2214, -1, -1, -1, -1, -1, -1, -1, 2232, 2231, 2230, 2229, 2228, 2227, -1, -1, -1, -1, -1, -1, -1, 2235, -1, -1, 2242, 2241, 2240, -1, -1, -1, 2244, -1, -1, 2271, 2268, 2253, 2252, 2251, -1, -1, -1, 2267, 2266, 2265, 2264, 2263, 2262, 2261, -1, -1, -1, -1, -1, -1, -1, -1, 2270, -1, -1, 2287, 2286, 2285, 2284, 2283, 2282, 2281, 2280, -1, -1, -1, -1, -1, -1, -1, -1, -1, 2332, 2317, 2314, 2311, 2310, 2305, 2304, 2303, 2302, 2301, 2300, -1, -1, -1, -1, -1, -1, 2309, 2308, -1, -1, -1, -1, 2313, -1, -1, 2316, -1, -1, 2331, 2330, 2329, 2328, 2327, 2326, 2325, -1, -1, -1, -1, -1, -1, -1, -1, 2362, 2359, 2358, 2355, 2352, 2349, 2344, 2343, 2342, -1, -1, -1, 2348, 2347, -1, -1, -1, 2351, -1, -1, 2354, -1, -1, 2357, -1, -1, -1, 2361, -1, -1, 2364, -1, -1, 2493, 2444, 2435, 2404, 2385, 2384, 2383, 2382, 2381, 2380, 2379, 2378, -1, -1, -1, -1, -1, -1, -1, -1, 2401, 2400, 2399, 2398, 2397, 2396, 2395, 2394, -1, -1, -1, -1, -1, -1, -1, -1, 2403, -1, -1, 2432, 2419, 2418, 2417, 2416, 2415, 2414, 2413, -1, -1, -1, -1, -1, -1, -1, 2431, 2430, 2429, 2428, 2427, 2426, -1, -1, -1, -1, -1, -1, -1, 2434, -1, -1, 2441, 2440, 2439, -1, -1, -1, 2443, -1, -1, 2490, 2475, 2460, 2459, 2458, 2457, 2456, 2455, 2454, -1, -1, -1, -1, -1, -1, -1, 2474, 2473, 2472, 2471, 2470, 2469, 2468, -1, -1, -1, -1, -1, -1, -1, -1, 2489, 2488, 2487, 2486, 2485, 2484, 2483, -1, -1, -1, -1, -1, -1, -1, -1, 2492, -1, -1, 2521, 2512, 2511, 2510, 2509, 2508, 2507, 2506, 2505, 2504, -1, -1, -1, -1, -1, -1, -1, -1, -1, 2520, 2519, 2518, 2517, -1, -1, -1, -1, -1, 2537, 2536, 2535, 2534, 2533, 2532, 2531, 2530, -1, -1, -1, -1, -1, -1, -1, -1, -1, 2572, 2561, 2554, 2553, 2550, 2547, 2546, -1, -1, 2549, -1, -1, 2552, -1, -1, -1, 2560, 2559, 2558, -1, -1, -1, -1, 2567, 2566, 2565, -1, -1, -1, 2571, 2570, -1, -1, -1, 2590, 2585, 2582, 2579, 2578, -1, -1, 2581, -1, -1, 2584, -1, -1, 2589, 2588, -1, -1, -1, 2594, 2593, -1, -1, -1, 2707, 2696, 2683, 2666, 2651, 2638, 2633, 2626, 2615, 2614, 2613, 2612, 2609, -1, 2611, -1, -1, -1, -1, -1, 2625, 2624, 2623, 2622, 2621, -1, -1, -1, -1, -1, -1, 2630, 2629, -1, -1, 2632, -1, -1, 2637, 2636, -1, -1, -1, 2648, 2647, 2646, 2645, 2644, -1, -1, -1, -1, -1, 2650, -1, -1, 2655, 2654, -1, -1, 2665, 2664, 2663, 2662, 2661, -1, -1, -1, -1, -1, -1, 2678, 2675, 2672, 2671, -1, -1, 2674, -1, -1, 2677, -1, -1, 2682, 2681, -1, -1, -1, 2691, 2690, 2687, -1, 2689, -1, -1, -1, 2695, 2694, -1, -1, -1, 2706, 2703, 2702, 2701, -1, -1, -1, 2705, -1, -1, -1, 2745, 2744, 2739, 2736, 2727, 2726, 2721, 2720, 2719, 2718, -1, -1, -1, -1, 2725, 2724, -1, -1, -1, -1, 2735, 2734, 2733, 2732, -1, -1, -1, -1, -1, 2738, -1, -1, 2743, 2742, -1, -1, -1, -1, 2747, -1, -1, 2914, 2861, 2852, 2841, 2830, 2807, 2800, 2779, 2776, 2773, 2766, 2765, 2764, 2763, -1, -1, -1, -1, 2772, 2771, 2770, -1, -1, -1, -1, 2775, -1, -1, 2778, -1, -1, 2797, 2794, 2791, 2788, 2787, 2786, -1, -1, -1, 2790, -1, -1, 2793, -1, -1, 2796, -1, -1, 2799, -1, -1, 2804, 2803, -1, -1, 2806, -1, -1, 2827, 2824, 2823, 2822, 2819, 2816, 2815, -1, -1, 2818, -1, -1, 2821, -1, -1, -1, -1, 2826, -1, -1, 2829, -1, -1, 2836, 2835, 2834, -1, -1, -1, 2840, 2839, -1, -1, -1, 2849, 2846, 2845, -1, -1, 2848, -1, -1, 2851, -1, -1, 2858, 2857, 2856, -1, -1, -1, 2860, -1, -1, 2909, 2892, 2889, 2886, 2883, 2882, 2881, 2876, 2875, 2874, 2873, -1, -1, -1, -1, 2880, 2879, -1, -1, -1, -1, -1, 2885, -1, -1, 2888, -1, -1, 2891, -1, -1, 2908, 2907, 2906, 2905, 2904, 2903, 2902, 2901, -1, -1, -1, -1, -1, -1, -1, -1, -1, 2913, 2912, -1, -1, -1, 2946, 2943, 2934, 2933, 2932, 2931, 2930, 2929, 2928, 2927, 2926, -1, -1, -1, -1, -1, -1, -1, -1, -1, 2942, 2941, 2940, 2939, -1, -1, -1, -1, -1, 2945, -1, -1, 2964, 2963, 2962, 2961, 2960, 2959, 2958, 2957, 2956, -1, -1, -1, -1, -1, -1, -1, -1, -1, -1, 3027, 3012, 2997, 2992, 2985, 2978, 2977, 2976, 2975, -1, -1, -1, -1, 2984, 2983, 2982, -1, -1, -1, -1, 2991, 2988, -1, 2990, -1, -1, -1, 2996, 2995, -1, -1, -1, 3009, 3008, 3005, 3002, -1, 3004, -1, -1, 3007, -1, -1, -1, 3011, -1, -1, 3022, 3019, 3018, 3017, -1, -1, -1, 3021, -1, -1, 3026, 3025, -1, -1, -1, 3045, 3040, 3039, 3036, 3035, 3034, -1, -1, -1, 3038, -1, -1, -1, 3044, 3043, -1, -1, -1, 3049, 3048, -1, -1, -1, 3124, 3111, 3088, 3077, 3070, 3067, 3062, 3061, 3060, -1, -1, -1, 3066, 3065, -1, -1, -1, 3069, -1, -1, 3076, 3075, 3074, -1, -1, -1, -1, 3085, 3084, 3083, 3082, -1, -1, -1, -1, 3087, -1, -1, 3106, 3101, 3098, 3095, 3094, -1, -1, 3097, -1, -1, 3100, -1, -1, 3105, 3104, -1, -1, -1, 3110, 3109, -1, -1, -1, 3119, 3118, 3117, 3116, -1, -1, -1, -1, 3123, 3122, -1, -1, -1, 3142, 3139, 3136, 3133, 3132, 3131, -1, -1, -1, 3135, -1, -1, 3138, -1, -1, 3141, -1, -1, 3150, 3149, 3148, 3147, -1, -1, -1, -1, -1, 3211, 3206, 3205, 3200, 3195, 3190, 3187, 3182, 3177, 3174, 3171, 3168, 3167, 3166, -1, -1, -1, 3170, -1, -1, 3173, -1, -1, 3176, -1, -1, 3181, 3180, -1, -1, -1, 3186, 3185, -1, -1, -1, 3189, -1, -1, 3194, 3193, -1, -1, -1, 3199, 3198, -1, -1, -1, 3204, 3203, -1, -1, -1, -1, 3210, 3209, -1, -1, -1, 3215, 3214, -1, -1, -1, 3284, 3273, 3248, 3241, 3234, 3229, 3228, 3227, 3226, -1, -1, -1, -1, 3233, 3232, -1, -1, -1, 3240, 3239, 3238, -1, -1, -1, -1, 3247, 3246, 3245, -1, -1, -1, -1, 3268, 3265, 3262, 3259, 3256, 3255, -1, -1, 3258, -1, -1, 3261, -1, -1, 3264, -1, -1, 3267, -1, -1, 3272, 3271, -1, -1, -1, 3283, 3280, 3279, 3278, -1, -1, -1, 3282, -1, -1, -1, 3312, 3303, 3302, 3297, 3296, 3295, 3294, 3293, -1, -1, -1, -1, -1, 3301, 3300, -1, -1, -1, -1, 3311, 3310, 3309, 3308, -1, -1, -1, -1, -1, 3320, 3319, 3318, 3317, -1, -1, -1, -1, -1, 3377, 3366, 3363, 3348, 3345, 3338, 3337, 3336, 3333, 3332, -1, -1, 3335, -1, -1, -1, -1, 3344, 3343, 3342, -1, -1, -1, -1, 3347, -1, -1, 3356, 3355, 3354, 3353, -1, -1, -1, -1, 3362, 3361, 3360, -1, -1, -1, -1, 3365, -1, -1, 3374, 3373, 3370, -1, 3372, -1, -1, -1, 3376, -1, -1, 3407, 3400, 3391, 3390, 3389, 3386, 3385, -1, -1, 3388, -1, -1, -1, -1, 3399, 3398, 3397, 3396, -1, -1, -1, -1, -1, 3406, 3405, 3404, -1, -1, -1, -1, 3409, -1, -1, 3532, 3485, 3482, 3457, 3454, 3451, 3448, 3445, 3444, 3441, 3438, 3435, 3432, 3431, 3428, 3427, -1, -1, 3430, -1, -1, -1, 3434, -1, -1, 3437, -1, -1, 3440, -1, -1, 3443, -1, -1, -1, 3447, -1, -1, 3450, -1, -1, 3453, -1, -1, 3456, -1, -1, 3481, 3480, 3479, 3478, 3477, 3476, 3475, 3474, 3473, 3472, 3471, 3470, -1, -1, -1, -1, -1, -1, -1, -1, -1, -1, -1, -1, -1, 3484, -1, -1, 3529, 3518, 3515, 3512, 3511, 3510, 3509, 3508, 3507, 3504, 3503, 3502, 3501, 3500, -1, -1, -1, -1, -1, 3506, -1, -1, -1, -1, -1, -1, -1, 3514, -1, -1, 3517, -1, -1, 3528, 3527, 3526, 3525, 3524, -1, -1, -1, -1, -1, -1, 3531, -1, -1, 3550, 3547, 3544, 3543, 3542, 3541, 3540, -1, -1, -1, -1, -1, 3546, -1, -1, 3549, -1, -1, 3572, 3571, 3570, 3569, 3568, 3567, 3566, 3565, 3564, 3563, 3562, -1, -1, -1, -1, -1, -1, -1, -1, -1, -1, -1, -1, 3823, 3798, 3781, 3742, 3727, 3680, 3677, 3650, 3641, 3636, 3635, 3632, 3623, 3620, 3617, 3610, 3605, 3602, 3599, 3598, 3597, 3596, -1, -1, -1, -1, 3601, -1, -1, 3604, -1, -1, 3609, 3608, -1, -1, -1, 3616, 3615, 3614, -1, -1, -1, -1, 3619, -1, -1, 3622, -1, -1, 3631, 3630, 3629, 3628, -1, -1, -1, -1, -1, 3634, -1, -1, -1, 3640, 3639, -1, -1, -1, 3649, 3648, 3647, 3646, -1, -1, -1, -1, -1, 3672, 3671, 3668, 3665, 3664, 3663, 3662, 3661, 3660, -1, -1, -1, -1, -1, -1, 3667, -1, -1, 3670, -1, -1, -1, 3676, 3675, -1, -1, -1, 3679, -1, -1, 3716, 3715, 3708, 3707, 3706, 3701, 3692, 3691, 3690, -1, -1, -1, 3700, 3699, 3698, 3697, -1, -1, -1, -1, -1, 3705, 3704, -1, -1, -1, -1, -1, 3714, 3713, 3712, -1, -1, -1, -1, -1, 3726, 3725, 3724, 3723, 3722, -1, -1, -1, -1, -1, -1, 3741, 3740, 3739, 3736, 3735, 3734, -1, -1, -1, 3738, -1, -1, -1, -1, -1, 3770, 3765, 3758, 3757, 3750, 3749, -1, -1, 3756, 3755, 3754, -1, -1, -1, -1, -1, 3764, 3763, 3762, -1, -1, -1, -1, 3769, 3768, -1, -1, -1, 3780, 3779, 3778, 3777, 3776, -1, -1, -1, -1, -1, -1, 3795, 3794, 3793, 3786, -1, 3792, 3791, 3790, -1, -1, -1, -1, -1, -1, 3797, -1, -1, 3820, 3815, 3812, 3811, 3806, 3805, -1, -1, 3810, 3809, -1, -1, -1, -1, 3814, -1, -1, 3819, 3818, -1, -1, -1, 3822, -1, -1, 3841, 3840, 3831, 3830, 3829, -1, -1, -1, 3839, 3838, 3837, 3836, -1, -1, -1, -1, -1, -1, 3843, -1, -1, 4962, 4693, 4646, 4531, 4500, 4379, 4330, 4279, 4238, 4203, 4108, 4033, 3938, 3899, 3894, 3893, 3886, 3885, 3882, 3875, 3874, 3873, 3872, 3871, 3870, -1, -1, -1, -1, -1, -1, 3881, 3880, 3879, -1, -1, -1, -1, 3884, -1, -1, -1, 3892, 3891, 3890, -1, -1, -1, -1, -1, 3898, 3897, -1, -1, -1, 3931, 3924, 3921, 3918, 3917, 3916, 3915, 3912, 3911, 3910, -1, -1, -1, 3914, -1, -1, -1, -1, -1, 3920, -1, -1, 3923, -1, -1, 3930, 3929, 3928, -1, -1, -1, -1, 3937, 3936, 3935, -1, -1, -1, -1, 4000, 3997, 3972, 3957, 3956, 3955, 3954, 3953, 3952, 3951, 3950, -1, -1, -1, -1, -1, -1, -1, -1, 3971, 3970, 3969, 3968, 3967, 3966, 3965, -1, -1, -1, -1, -1, -1, -1, -1, 3994, 3993, 3990, 3987, 3984, 3981, 3980, -1, -1, 3983, -1, -1, 3986, -1, -1, 3989, -1, -1, 3992, -1, -1, -1, 3996, -1, -1, 3999, -1, -1, 4030, 4017, 4016, 4015, 4014, 4013, 4012, 4011, 4010, -1, -1, -1, -1, -1, -1, -1, -1, 4029, 4028, 4027, 4026, 4025, 4024, -1, -1, -1, -1, -1, -1, -1, 4032, -1, -1, 4079, 4076, 4071, 4066, 4063, 4058, 4051, 4050, 4047, 4046, 4045, -1, -1, -1, 4049, -1, -1, -1, 4057, 4056, 4055, -1, -1, -1, -1, 4062, 4061, -1, -1, -1, 4065, -1, -1, 4070, 4069, -1, -1, -1, 4075, 4074, -1, -1, -1, 4078, -1, -1, 4107, 4100, 4099, 4098, 4097, 4092, 4091, 4090, 4089, -1, -1, -1, -1, 4096, 4095, -1, -1, -1, -1, -1, -1, 4106, 4105, 4104, -1, -1, -1, -1, -1, 4186, 4177, 4152, 4149, 4136, 4133, 4132, 4131, 4130, 4127, 4126, 4123, 4122, -1, -1, 4125, -1, -1, -1, 4129, -1, -1, -1, -1, -1, 4135, -1, -1, 4148, 4147, 4146, 4145, 4144, 4143, -1, -1, -1, -1, -1, -1, -1, 4151, -1, -1, 4176, 4175, 4172, 4169, 4168, 4163, 4162, 4161, -1, -1, -1, 4167, 4166, -1, -1, -1, -1, 4171, -1, -1, 4174, -1, -1, -1, -1, 4183, 4182, 4181, -1, -1, -1, 4185, -1, -1, 4202, 4199, 4198, 4197, 4196, 4195, 4194, -1, -1, -1, -1, -1, -1, 4201, -1, -1, -1, 4229, 4222, 4219, 4214, 4213, 4212, 4211, -1, -1, -1, -1, 4218, 4217, -1, -1, -1, 4221, -1, -1, 4228, 4227, 4226, -1, -1, -1, -1, 4235, 4234, 4233, -1, -1, -1, 4237, -1, -1, 4272, 4271, 4262, 4257, 4256, 4251, 4250, 4249, 4248, -1, -1, -1, -1, 4255, 4254, -1, -1, -1, -1, 4261, 4260, -1, -1, -1, 4270, 4269, 4268, 4267, -1, -1, -1, -1, -1, -1, 4278, 4277, 4276, -1, -1, -1, -1, 4315, 4296, 4295, 4294, 4291, 4288, 4287, -1, -1, 4290, -1, -1, 4293, -1, -1, -1, -1, 4314, 4309, 4306, 4303, 4302, -1, -1, 4305, -1, -1, 4308, -1, -1, 4313, 4312, -1, -1, -1, -1, 4327, 4326, 4323, 4322, 4321, -1, -1, -1, 4325, -1, -1, -1, 4329, -1, -1, 4364, 4353, 4352, 4343, 4342, 4339, 4338, -1, -1, 4341, -1, -1, -1, 4351, 4348, 4347, -1, -1, 4350, -1, -1, -1, -1, 4363, 4362, 4359, 4358, -1, -1, 4361, -1, -1, -1, -1, 4376, 4373, 4370, 4369, -1, -1, 4372, -1, -1, 4375, -1, -1, 4378, -1, -1, 4465, 4438, 4433, 4426, 4419, 4416, 4413, 4412, 4411, 4410, 4407, 4400, 4399, 4398, 4397, 4396, -1, -1, -1, -1, -1, 4406, 4405, 4404, -1, -1, -1, -1, 4409, -1, -1, -1, -1, -1, 4415, -1, -1, 4418, -1, -1, 4425, 4424, 4423, -1, -1, -1, -1, 4432, 4431, 4430, -1, -1, -1, -1, 4437, 4436, -1, -1, -1, 4464, 4463, 4462, 4461, 4460, 4459, 4456, 4455, 4452, 4451, 4450, -1, -1, -1, 4454, -1, -1, -1, 4458, -1, -1, -1, -1, -1, -1, -1, -1, 4491, 4490, 4489, 4486, 4485, 4484, 4483, 4482, 4481, 4480, 4479, 4478, -1, -1, -1, -1, -1, -1, -1, -1, -1, 4488, -1, -1, -1, -1, 4499, 4498, 4497, 4496, -1, -1, -1, -1, -1, 4520, 4519, 4516, 4515, 4508, 4507, -1, -1, 4512, 4511, -1, -1, 4514, -1, -1, -1, 4518, -1, -1, -1, 4530, 4529, 4528, 4527, 4526, -1, -1, -1, -1, -1, -1, 4575, 4570, 4567, 4552, 4549, 4548, 4547, 4546, 4545, 4544, 4543, -1, -1, -1, -1, -1, -1, -1, 4551, -1, -1, 4566, 4565, 4564, 4563, 4560, 4559, -1, -1, 4562, -1, -1, -1, -1, -1, -1, 4569, -1, -1, 4574, 4573, -1, -1, -1, 4639, 4634, 4629, 4624, 4619, 4618, 4611, 4608, 4605, 4602, 4601, 4598, 4595, 4592, 4591, -1, -1, 4594, -1, -1, 4597, -1, -1, 4600, -1, -1, -1, 4604, -1, -1, 4607, -1, -1, 4610, -1, -1, 4617, 4616, 4615, -1, -1, -1, -1, -1, 4623, 4622, -1, -1, -1, 4628, 4627, -1, -1, -1, 4633, 4632, -1, -1, -1, 4638, 4637, -1, -1, -1, 4645, 4644, 4643, -1, -1, -1, -1, 4692, 4685, 4682, 4681, 4678, 4677, 4676, 4673, 4670, 4663, 4662, 4661, 4660, -1, -1, -1, -1, 4669, 4668, 4667, -1, -1, -1, -1, 4672, -1, -1, 4675, -1, -1, -1, -1, 4680, -1, -1, -1, 4684, -1, -1, 4691, 4690, 4689, -1, -1, -1, -1, -1, 4917, 4892, 4847, 4810, 4769, 4764, 4759, 4756, 4751, 4746, 4741, 4728, 4715, 4714, 4713, 4712, 4711, -1, -1, -1, -1, -1, 4727, 4726, 4725, 4724, 4723, 4722, -1, -1, -1, -1, -1, -1, -1, 4740, 4739, 4738, 4737, 4736, 4735, -1, -1, -1, -1, -1, -1, -1, 4745, 4744, -1, -1, -1, 4750, 4749, -1, -1, -1, 4755, 4754, -1, -1, -1, 4758, -1, -1, 4763, 4762, -1, -1, -1, 4768, 4767, -1, -1, -1, 4809, 4808, 4807, 4802, 4799, 4794, 4783, 4782, 4781, 4780, -1, -1, -1, -1, 4793, 4792, 4791, 4790, 4789, -1, -1, -1, -1, -1, -1, 4798, 4797, -1, -1, -1, 4801, -1, -1, 4806, 4805, -1, -1, -1, -1, -1, -1, 4844, 4843, 4842, 4841, 4826, 4825, 4820, 4819, -1, -1, 4824, 4823, -1, -1, -1, -1, 4840, 4839, 4838, 4837, 4836, 4835, 4834, -1, -1, -1, -1, -1, -1, -1, -1, -1, -1, -1, 4846, -1, -1, 4889, 4888, 4877, 4874, 4871, 4870, 4869, 4868, 4867, 4866, 4865, 4864, 4863, 4862, -1, -1, -1, -1, -1, -1, -1, -1, -1, -1, 4873, -1, -1, 4876, -1, -1, 4887, 4886, 4885, 4884, 4883, -1, -1, -1, -1, -1, -1, -1, 4891, -1, -1, 4914, 4903, 4902, 4897, -1, 4901, 4900, -1, -1, -1, -1, 4913, 4912, 4911, 4910, 4909, -1, -1, -1, -1, -1, -1, 4916, -1, -1, 4959, 4956, 4955, 4946, 4945, 4944, 4943, 4936, 4935, 4934, 4933, 4932, 4931, -1, -1, -1, -1, -1, -1, 4942, 4941, 4940, -1, -1, -1, -1, -1, -1, -1, 4954, 4953, 4952, 4951, -1, -1, -1, -1, -1, -1, 4958, -1, -1, 4961, -1, -1, 5018, 5005, 5000, 4995, 4994, 4993, 4988, 4983, 4980, 4977, 4976, 4975, -1, -1, -1, 4979, -1, -1, 4982, -1, -1, 4985, -1, 4987, -1, -1, 4992, 4991, -1, -1, -1, -1, -1, 4997, -1, 4999, -1, -1, 5004, 5003, -1, -1, -1, 5017, 5016, 5015, 5014, 5013, 5012, -1, -1, -1, -1, -1, -1, -1, 5034, 5029, 5022, -1, 5028, 5027, 5026, -1, -1, -1, -1, 5033, 5032, -1, -1, -1, 5036, -1, -1, 6831, 6634, 6191, 5850, 5779, 5592, 5423, 5268, 5141, 5132, 5125, 5120, 5115, 5112, 5097, 5090, 5087, 5084, 5073, 5072, 5071, 5070, 5065, 5064, 5063, -1, -1, -1, 5069, 5068, -1, -1, -1, -1, -1, -1, 5083, 5082, 5081, 5080, 5079, -1, -1, -1, -1, -1, -1, 5086, -1, -1, 5089, -1, -1, 5094, 5093, -1, -1, 5096, -1, -1, 5111, 5108, 5105, 5104, 5103, -1, -1, -1, 5107, -1, -1, 5110, -1, -1, -1, 5114, -1, -1, 5119, 5118, -1, -1, -1, 5124, 5123, -1, -1, -1, 5129, 5128, -1, -1, 5131, -1, -1, 5138, 5137, 5136, -1, -1, -1, 5140, -1, -1, 5225, 5220, 5189, 5186, 5183, 5180, 5177, 5174, 5171, 5170, 5167, 5166, 5165, 5160, 5159, 5158, -1, -1, -1, 5164, 5163, -1, -1, -1, -1, -1, 5169, -1, -1, -1, 5173, -1, -1, 5176, -1, -1, 5179, -1, -1, 5182, -1, -1, 5185, -1, -1, 5188, -1, -1, 5217, 5216, 5215, 5214, 5213, 5212, 5207, 5206, 5205, 5204, 5203, 5202, -1, -1, -1, -1, -1, -1, 5211, 5210, -1, -1, -1, -1, -1, -1, -1, -1, 5219, -1, -1, 5224, 5223, -1, -1, -1, 5267, 5264, 5263, 5260, 5259, 5258, 5257, 5254, 5245, 5244, 5243, 5242, 5241, 5240, -1, -1, -1, -1, -1, -1, 5253, 5252, 5251, 5250, -1, -1, -1, -1, -1, 5256, -1, -1, -1, -1, -1, 5262, -1, -1, -1, 5266, -1, -1, -1, 5414, 5405, 5364, 5355, 5348, 5321, 5318, 5313, 5298, 5297, 5296, 5293, 5288, 5287, 5286, 5285, -1, -1, -1, -1, 5292, 5291, -1, -1, -1, 5295, -1, -1, -1, -1, 5312, 5311, 5310, 5309, 5308, 5307, 5306, -1, -1, -1, -1, -1, -1, -1, -1, 5317, 5316, -1, -1, -1, 5320, -1, -1, 5347, 5344, 5343, 5340, 5335, 5334, 5333, 5332, 5331, -1, -1, -1, -1, -1, 5339, 5338, -1, -1, -1, 5342, -1, -1, -1, 5346, -1, -1, -1, 5354, 5353, 5352, -1, -1, -1, -1, 5363, 5360, 5359, -1, -1, 5362, -1, -1, -1, 5402, 5401, 5400, 5397, 5394, 5391, 5388, 5385, 5382, 5379, 5378, 5377, -1, -1, -1, 5381, -1, -1, 5384, -1, -1, 5387, -1, -1, 5390, -1, -1, 5393, -1, -1, 5396, -1, -1, 5399, -1, -1, -1, -1, 5404, -1, -1, 5411, 5410, 5409, -1, -1, -1, 5413, -1, -1, 5422, 5421, 5420, 5419, -1, -1, -1, -1, -1, 5535, 5482, 5479, 5476, 5473, 5470, 5465, 5462, 5459, 5456, 5453, 5446, 5443, 5442, 5441, 5440, -1, -1, -1, -1, 5445, -1, -1, 5452, 5451, 5450, -1, -1, -1, -1, 5455, -1, -1, 5458, -1, -1, 5461, -1, -1, 5464, -1, -1, 5469, 5468, -1, -1, -1, 5472, -1, -1, 5475, -1, -1, 5478, -1, -1, 5481, -1, -1, 5532, 5529, 5526, 5521, 5508, 5507, 5506, 5503, 5502, 5501, 5500, 5499, 5498, 5497, -1, -1, -1, -1, -1, -1, -1, 5505, -1, -1, -1, -1, 5520, 5519, 5518, 5517, 5516, 5515, -1, -1, -1, -1, -1, -1, -1, 5525, 5524, -1, -1, -1, 5528, -1, -1, 5531, -1, -1, 5534, -1, -1, 5589, 5586, 5583, 5580, 5577, 5564, 5563, 5562, 5559, 5556, 5553, 5552, 5551, 5550, -1, -1, -1, -1, 5555, -1, -1, 5558, -1, -1, 5561, -1, -1, -1, -1, 5576, 5575, 5574, 5573, 5572, 5571, -1, -1, -1, -1, -1, -1, -1, 5579, -1, -1, 5582, -1, -1, 5585, -1, -1, 5588, -1, -1, 5591, -1, -1, 5766, 5755, 5744, 5733, 5718, 5701, 5690, 5675, 5654, 5645, 5636, 5625, 5618, 5613, 5610, 5609, -1, -1, 5612, -1, -1, 5617, 5616, -1, -1, -1, 5622, 5621, -1, -1, 5624, -1, -1, 5633, 5630, 5629, -1, -1, 5632, -1, -1, 5635, -1, -1, 5642, 5641, 5640, -1, -1, -1, 5644, -1, -1, 5651, 5650, 5649, -1, -1, -1, 5653, -1, -1, 5672, 5669, 5666, 5665, 5662, 5661, -1, -1, 5664, -1, -1, -1, 5668, -1, -1, 5671, -1, -1, 5674, -1, -1, 5685, 5684, 5681, 5680, -1, -1, 5683, -1, -1, -1, 5689, 5688, -1, -1, -1, 5696, 5695, 5694, -1, -1, -1, 5700, 5699, -1, -1, -1, 5713, 5710, 5707, 5706, -1, -1, 5709, -1, -1, 5712, -1, -1, 5717, 5716, -1, -1, -1, 5730, 5725, 5724, 5723, -1, -1, -1, 5729, 5728, -1, -1, -1, 5732, -1, -1, 5741, 5738, 5737, -1, -1, 5740, -1, -1, 5743, -1, -1, 5752, 5749, 5748, -1, -1, 5751, -1, -1, 5754, -1, -1, 5763, 5760, 5759, -1, -1, 5762, -1, -1, 5765, -1, -1, 5774, 5771, 5770, -1, -1, 5773, -1, -1, 5778, 5777, -1, -1, -1, 5835, 5822, 5805, 5798, 5793, 5790, 5789, 5788, -1, -1, -1, 5792, -1, -1, 5795, -1, 5797, -1, -1, 5802, 5801, -1, -1, 5804, -1, -1, 5817, 5812, 5811, 5810, -1, -1, -1, 5816, 5815, -1, -1, -1, 5821, 5820, -1, -1, -1, 5830, 5829, 5828, 5827, -1, -1, -1, -1, 5834, 5833, -1, -1, -1, 5845, 5842, 5841, 5840, -1, -1, -1, 5844, -1, -1, 5849, 5848, -1, -1, -1, 6164, 6085, 6068, 6021, 5950, 5927, 5904, 5901, 5898, 5895, 5892, 5889, 5886, 5883, 5874, 5873, 5872, 5871, 5870, -1, -1, -1, -1, -1, 5882, 5881, 5880, 5879, -1, -1, -1, -1, -1, 5885, -1, -1, 5888, -1, -1, 5891, -1, -1, 5894, -1, -1, 5897, -1, -1, 5900, -1, -1, 5903, -1, -1, 5926, 5925, 5924, 5923, 5922, 5921, 5920, 5919, 5918, 5917, 5916, -1, -1, -1, -1, -1, -1, -1, -1, -1, -1, -1, -1, 5949, 5948, 5947, 5946, 5945, 5944, 5943, 5942, 5941, 5940, 5939, -1, -1, -1, -1, -1, -1, -1, -1, -1, -1, -1, -1, 6006, 6003, 5998, 5979, 5978, 5977, 5974, 5973, 5972, 5963, 5962, -1, -1, 5971, 5970, 5969, 5968, -1, -1, -1, -1, -1, -1, -1, 5976, -1, -1, -1, -1, 5997, 5996, 5995, 5994, 5993, 5992, 5991, 5990, 5989, -1, -1, -1, -1, -1, -1, -1, -1, -1, -1, 6002, 6001, -1, -1, -1, 6005, -1, -1, 6020, 6019, 6018, 6017, 6016, 6015, 6014, -1, -1, -1, -1, -1, -1, -1, -1, 6065, 6062, 6043, 6042, 6041, 6040, 6039, 6038, 6037, 6036, 6035, 6034, -1, -1, -1, -1, -1, -1, -1, -1, -1, -1, 6061, 6060, 6059, 6058, 6057, 6056, 6055, 6054, 6053, -1, -1, -1, -1, -1, -1, -1, -1, -1, -1, 6064, -1, -1, 6067, -1, -1, 6078, 6077, 6076, 6075, 6074, -1, -1, -1, -1, -1, 6084, 6083, 6082, -1, -1, -1, -1, 6157, 6134, 6129, 6128, 6123, 6118, 6117, 6114, 6103, 6102, 6101, 6098, -1, 6100, -1, -1, -1, -1, 6113, 6112, 6111, 6110, 6109, -1, -1, -1, -1, -1, -1, 6116, -1, -1, -1, 6122, 6121, -1, -1, -1, 6127, 6126, -1, -1, -1, -1, 6133, 6132, -1, -1, -1, 6156, 6155, 6154, 6153, 6152, 6151, 6150, 6149, 6148, 6147, 6146, -1, -1, -1, -1, -1, -1, -1, -1, -1, -1, -1, -1, 6163, 6162, 6161, -1, -1, -1, -1, 6186, 6181, 6176, 6173, 6172, 6171, -1, -1, -1, 6175, -1, -1, 6180, 6179, -1, -1, -1, 6185, 6184, -1, -1, -1, 6190, 6189, -1, -1, -1, 6549, 6524, 6439, 6362, 6351, 6340, 6327, 6286, 6239, 6236, 6233, 6232, 6229, 6228, 6219, 6218, 6217, 6216, 6213, 6212, -1, -1, 6215, -1, -1, -1, -1, -1, 6227, 6226, 6225, 6224, -1, -1, -1, -1, -1, -1, 6231, -1, -1, -1, 6235, -1, -1, 6238, -1, -1, 6281, 6276, 6273, 6270, 6267, 6258, 6257, 6256, 6253, 6252, 6251, -1, -1, -1, 6255, -1, -1, -1, -1, 6266, 6265, 6264, 6263, -1, -1, -1, -1, -1, 6269, -1, -1, 6272, -1, -1, 6275, -1, -1, 6280, 6279, -1, -1, -1, 6285, 6284, -1, -1, -1, 6324, 6307, 6306, 6305, 6304, 6303, 6302, 6301, 6300, 6299, 6298, -1, -1, -1, -1, -1, -1, -1, -1, -1, -1, 6323, 6322, 6321, 6320, 6319, 6318, 6317, 6316, -1, -1, -1, -1, -1, -1, -1, -1, -1, 6326, -1, -1, 6335, 6334, 6333, 6332, -1, -1, -1, -1, 6339, 6338, -1, -1, -1, 6348, 6345, 6344, -1, -1, 6347, -1, -1, 6350, -1, -1, 6359, 6356, 6355, -1, -1, 6358, -1, -1, 6361, -1, -1, 6414, 6389, 6388, 6387, 6386, 6385, 6384, 6383, 6382, 6381, 6380, 6379, 6378, 6377, -1, -1, -1, -1, -1, -1, -1, -1, -1, -1, -1, -1, -1, 6413, 6412, 6411, 6410, 6409, 6408, 6407, 6406, 6405, 6404, 6403, 6402, -1, -1, -1, -1, -1, -1, -1, -1, -1, -1, -1, -1, -1, 6438, 6437, 6436, 6435, 6434, 6433, 6432, 6431, 6430, 6429, 6428, 6427, -1, -1, -1, -1, -1, -1, -1, -1, -1, -1, -1, -1, -1, 6517, 6512, 6491, 6488, 6485, 6482, 6479, 6474, 6471, 6460, 6459, 6458, 6457, 6456, 6455, -1, -1, -1, -1, -1, -1, 6470, 6469, 6468, 6467, 6466, -1, -1, -1, -1, -1, -1, 6473, -1, -1, 6478, 6477, -1, -1, -1, 6481, -1, -1, 6484, -1, -1, 6487, -1, -1, 6490, -1, -1, 6511, 6510, 6509, 6508, 6507, 6506, 6505, 6504, 6503, 6502, -1, -1, -1, -1, -1, -1, -1, -1, -1, -1, -1, 6516, 6515, -1, -1, -1, 6523, 6522, 6521, -1, -1, -1, -1, 6542, 6539, 6538, 6535, 6532, 6531, -1, -1, 6534, -1, -1, 6537, -1, -1, -1, 6541, -1, -1, 6548, 6547, 6546, -1, -1, -1, -1, 6607, 6604, 6601, 6598, 6595, 6592, 6589, 6586, 6583, 6580, 6577, 6574, 6571, 6568, 6567, 6566, -1, -1, -1, 6570, -1, -1, 6573, -1, -1, 6576, -1, -1, 6579, -1, -1, 6582, -1, -1, 6585, -1, -1, 6588, -1, -1, 6591, -1, -1, 6594, -1, -1, 6597, -1, -1, 6600, -1, -1, 6603, -1, -1, 6606, -1, -1, 6633, 6632, 6631, 6630, 6629, 6628, 6627, 6626, 6625, 6624, 6623, 6622, 6621, -1, -1, -1, -1, -1, -1, -1, -1, -1, -1, -1, -1, -1, -1, 6746, 6737, 6730, 6715, 6686, 6683, 6660, 6659, 6658, 6657, 6656, 6655, 6654, 6653, 6652, 6651, -1, -1, -1, -1, -1, -1, -1, -1, -1, -1, 6682, 6681, 6680, 6679, 6678, 6677, 6676, 6675, 6674, 6673, 6672, -1, -1, -1, -1, -1, -1, -1, -1, -1, -1, -1, -1, 6685, -1, -1, 6714, 6703, 6702, 6701, 6700, 6699, 6698, 6697, 6696, -1, -1, -1, -1, -1, -1, -1, -1, 6713, 6712, 6711, 6710, 6709, -1, -1, -1, -1, -1, -1, -1, 6729, 6728, 6725, 6722, 6721, -1, -1, 6724, -1, -1, 6727, -1, -1, -1, -1, 6736, 6735, 6734, -1, -1, -1, -1, 6743, 6742, 6741, -1, -1, -1, 6745, -1, -1, 6804, 6801, 6798, 6795, 6792, 6789, 6786, 6771, 6770, 6769, 6768, 6767, 6766, 6765, 6764, 6763, -1, -1, -1, -1, -1, -1, -1, -1, -1, 6785, 6784, 6783, 6782, 6781, 6780, 6779, -1, -1, -1, -1, -1, -1, -1, -1, 6788, -1, -1, 6791, -1, -1, 6794, -1, -1, 6797, -1, -1, 6800, -1, -1, 6803, -1, -1, 6830, 6829, 6828, 6827, 6826, 6825, 6824, 6823, 6822, 6821, 6820, 6819, 6818, -1, -1, -1, -1, -1, -1, -1, -1, -1, -1, -1, -1, -1, -1, 6903, 6874, 6871, 6870, 6869, 6868, 6867, 6866, 6863, 6862, 6859, 6858, 6857, 6854, 6853, 6850, 6849, -1, -1, 6852, -1, -1, -1, 6856, -1, -1, -1, -1, 6861, -1, -1, -1, 6865, -1, -1, -1, -1, -1, -1, -1, 6873, -1, -1, 6902, 6881, 6880, 6879, -1, -1, -1, 6901, 6900, 6899, 6898, 6897, 6896, 6895, 6894, 6893, 6892, -1, -1, -1, -1, -1, -1, -1, -1, -1, -1, -1, -1, 6909, 6908, 6907, -1, -1, -1, 6933, 6932, 6931, 6930, 6929, 6928, 6927, 6926, 6925, 6924, 6923, 6922, -1, -1, -1, -1, -1, -1, -1, -1, -1, -1, -1, -1, -1, 8668, 8549, 8194, 7999, 7762, 7565, 7514, 7451, 7230, 7077, 7014, 7007, 7000, 6995, 6990, 6977, 6968, 6967, 6966, 6963, 6962, 6961, 6960, 6959, -1, -1, -1, -1, -1, 6965, -1, -1, -1, -1, 6976, 6975, 6974, 6973, -1, -1, -1, -1, -1, 6989, 6988, 6987, 6986, 6985, 6984, -1, -1, -1, -1, -1, -1, -1, 6994, 6993, -1, -1, -1, 6999, 6998, -1, -1, -1, 7006, 7005, 7004, -1, -1, -1, -1, 7013, 7012, 7011, -1, -1, -1, -1, 7072, 7053, 7050, 7047, 7036, 7035, 7034, 7033, 7032, 7031, 7030, 7029, 7028, -1, -1, -1, -1, -1, -1, -1, -1, -1, 7046, 7045, 7044, 7043, 7042, -1, -1, -1, -1, -1, -1, 7049, -1, -1, 7052, -1, -1, 7071, 7070, 7069, 7068, 7067, 7066, 7065, 7064, 7063, -1, -1, -1, -1, -1, -1, -1, -1, -1, -1, 7076, 7075, -1, -1, -1, 7217, 7178, 7169, 7160, 7143, 7114, 7111, 7098, 7097, 7096, 7095, 7094, 7093, 7092, -1, -1, -1, -1, -1, -1, -1, 7110, 7109, 7108, 7107, 7106, 7105, -1, -1, -1, -1, -1, -1, -1, 7113, -1, -1, 7140, 7137, 7134, 7133, 7126, 7125, 7124, 7123, -1, -1, -1, -1, 7132, 7131, 7130, -1, -1, -1, -1, -1, 7136, -1, -1, 7139, -1, -1, 7142, -1, -1, 7159, 7156, 7155, 7154, 7153, 7152, 7151, -1, -1, -1, -1, -1, -1, 7158, -1, -1, -1, 7168, 7165, 7164, -1, -1, 7167, -1, -1, -1, 7175, 7174, 7173, -1, -1, -1, 7177, -1, -1, 7214, 7197, 7196, 7195, 7194, 7193, 7192, 7191, 7190, 7189, -1, -1, -1, -1, -1, -1, -1, -1, -1, 7213, 7212, 7211, 7210, 7209, 7208, 7207, 7206, -1, -1, -1, -1, -1, -1, -1, -1, -1, 7216, -1, -1, 7227, 7224, 7223, 7222, -1, -1, -1, 7226, -1, -1, 7229, -1, -1, 7430, 7411, 7392, 7369, 7324, 7299, 7268, 7253, 7252, 7251, 7250, 7249, 7248, 7247, 7246, -1, -1, -1, -1, -1, -1, -1, -1, 7267, 7266, 7265, 7264, 7263, 7262, 7261, -1, -1, -1, -1, -1, -1, -1, -1, 7296, 7283, 7282, 7281, 7280, 7279, 7278, 7277, -1, -1, -1, -1, -1, -1, -1, 7295, 7294, 7293, 7292, 7291, 7290, -1, -1, -1, -1, -1, -1, -1, 7298, -1, -1, 7321, 7318, 7315, 7314, 7311, 7310, 7309, 7308, -1, -1, -1, -1, 7313, -1, -1, -1, 7317, -1, -1, 7320, -1, -1, 7323, -1, -1, 7364, 7359, 7356, 7351, 7344, 7341, 7338, 7335, 7334, -1, -1, 7337, -1, -1, 7340, -1, -1, 7343, -1, -1, 7350, 7349, 7348, -1, -1, -1, -1, 7355, 7354, -1, -1, -1, 7358, -1, -1, 7363, 7362, -1, -1, -1, 7368, 7367, -1, -1, -1, 7389, 7384, 7383, 7382, 7381, 7380, 7379, 7378, -1, -1, -1, -1, -1, -1, -1, 7388, 7387, -1, -1, -1, 7391, -1, -1, 7406, 7401, 7400, 7399, 7398, -1, -1, -1, -1, 7405, 7404, -1, -1, -1, 7410, 7409, -1, -1, -1, 7425, 7418, 7417, 7416, -1, -1, -1, 7424, 7423, 7422, -1, -1, -1, -1, 7429, 7428, -1, -1, -1, 7446, 7439, 7438, 7437, 7436, -1, -1, -1, -1, 7445, 7444, 7443, -1, -1, -1, -1, 7450, 7449, -1, -1, -1, 7495, 7494, 7493, 7490, 7487, 7474, 7473, 7472, 7471, 7470, 7469, 7468, 7467, 7466, -1, -1, -1, -1, -1, -1, -1, -1, -1, 7486, 7485, 7484, 7483, 7482, 7481, -1, -1, -1, -1, -1, -1, -1, 7489, -1, -1, 7492, -1, -1, -1, -1, 7513, 7512, 7511, 7510, 7509, 7508, 7507, 7506, 7505, -1, -1, -1, -1, -1, -1, -1, -1, -1, -1, 7546, 7537, 7534, 7531, 7528, 7523, 7522, -1, -1, 7527, 7526, -1, -1, -1, 7530, -1, -1, 7533, -1, -1, 7536, -1, -1, 7545, 7542, 7541, -1, -1, 7544, -1, -1, -1, 7558, 7553, 7552, 7551, -1, -1, -1, 7557, 7556, -1, -1, -1, 7564, 7563, 7562, -1, -1, -1, -1, 7687, 7652, 7621, 7614, 7611, 7610, 7607, 7604, 7591, 7590, 7589, 7588, 7587, 7586, 7585, 7584, 7583, -1, -1, -1, -1, -1, -1, -1, -1, -1, 7603, 7602, 7601, 7600, 7599, 7598, -1, -1, -1, -1, -1, -1, -1, 7606, -1, -1, 7609, -1, -1, -1, 7613, -1, -1, 7620, 7619, 7618, -1, -1, -1, -1, 7649, 7646, 7639, 7638, 7637, 7636, 7635, 7634, 7633, 7632, -1, -1, -1, -1, -1, -1, -1, -1, 7645, 7644, 7643, -1, -1, -1, -1, 7648, -1, -1, 7651, -1, -1, 7676, 7675, 7674, 7673, 7672, 7671, 7670, 7669, 7668, 7667, 7666, 7665, -1, -1, -1, -1, -1, -1, -1, -1, -1, -1, -1, -1, 7686, 7685, 7684, 7683, 7682, -1, -1, -1, -1, -1, -1, 7755, 7750, 7743, 7738, 7735, 7732, 7727, 7718, 7715, 7712, 7709, 7706, 7703, 7702, -1, -1, 7705, -1, -1, 7708, -1, -1, 7711, -1, -1, 7714, -1, -1, 7717, -1, -1, 7726, 7725, 7724, 7723, -1, -1, -1, -1, -1, 7731, 7730, -1, -1, -1, 7734, -1, -1, 7737, -1, -1, 7742, 7741, -1, -1, -1, 7749, 7748, 7747, -1, -1, -1, -1, 7754, 7753, -1, -1, -1, 7761, 7760, 7759, -1, -1, -1, -1, 7932, 7917, 7900, 7863, 7858, 7825, 7822, 7799, 7798, 7797, 7794, 7793, 7790, 7787, 7784, 7781, 7780, -1, -1, 7783, -1, -1, 7786, -1, -1, 7789, -1, -1, 7792, -1, -1, -1, 7796, -1, -1, -1, -1, 7819, 7818, 7817, 7816, 7815, 7812, 7807, -1, 7811, 7810, -1, -1, -1, 7814, -1, -1, -1, -1, -1, -1, 7821, -1, -1, 7824, -1, -1, 7855, 7844, 7843, 7842, 7841, 7840, 7839, 7838, 7837, 7836, -1, -1, -1, -1, -1, -1, -1, -1, -1, 7854, 7853, 7852, 7851, 7850, -1, -1, -1, -1, -1, -1, 7857, -1, -1, 7862, 7861, -1, -1, -1, 7879, 7878, 7877, 7876, 7873, 7872, 7871, -1, -1, -1, 7875, -1, -1, -1, -1, -1, 7899, 7898, 7897, 7896, 7895, 7894, 7893, 7892, 7891, 7890, -1, -1, -1, -1, -1, -1, -1, -1, -1, -1, -1, 7916, 7913, 7912, 7911, 7910, 7909, 7908, -1, -1, -1, -1, -1, -1, 7915, -1, -1, -1, 7929, 7924, 7923, 7922, -1, -1, -1, 7928, 7927, -1, -1, -1, 7931, -1, -1, 7996, 7979, 7978, 7975, 7972, 7969, 7954, 7953, 7952, 7951, 7950, 7949, 7948, 7947, -1, -1, -1, -1, -1, -1, -1, -1, 7968, 7967, 7966, 7965, 7964, 7963, 7962, -1, -1, -1, -1, -1, -1, -1, -1, 7971, -1, -1, 7974, -1, -1, 7977, -1, -1, -1, 7995, 7994, 7993, 7992, 7991, 7990, 7989, 7988, -1, -1, -1, -1, -1, -1, -1, -1, -1, 7998, -1, -1, 8179, 8168, 8121, 8108, 8097, 8090, 8085, 8076, 8061, 8056, 8047, 8038, 8031, 8024, 8017, 8016, -1, -1, 8021, 8020, -1, -1, 8023, -1, -1, 8028, 8027, -1, -1, 8030, -1, -1, 8035, 8034, -1, -1, 8037, -1, -1, 8046, 8043, 8042, -1, -1, 8045, -1, -1, -1, 8055, 8052, 8051, -1, -1, 8054, -1, -1, -1, 8058, -1, 8060, -1, -1, 8069, 8068, 8067, 8066, -1, -1, -1, -1, 8075, 8074, 8073, -1, -1, -1, -1, 8082, 8081, 8080, -1, -1, -1, 8084, -1, -1, 8089, 8088, -1, -1, -1, 8096, 8095, 8094, -1, -1, -1, -1, 8105, 8102, 8101, -1, -1, 8104, -1, -1, 8107, -1, -1, 8120, 8115, 8114, 8113, -1, -1, -1, 8119, 8118, -1, -1, -1, -1, 8163, 8158, 8155, 8152, 8151, 8146, 8141, 8138, 8135, 8134, 8133, -1, -1, -1, 8137, -1, -1, 8140, -1, -1, 8145, 8144, -1, -1, -1, 8150, 8149, -1, -1, -1, -1, 8154, -1, -1, 8157, -1, -1, 8162, 8161, -1, -1, -1, 8167, 8166, -1, -1, -1, 8178, 8177, 8174, 8173, -1, -1, 8176, -1, -1, -1, -1, 8191, 8188, 8185, 8184, -1, -1, 8187, -1, -1, 8190, -1, -1, 8193, -1, -1, 8478, 8401, 8388, 8373, 8354, 8315, 8272, 8245, 8242, 8237, 8224, 8223, 8220, 8219, 8218, 8217, 8214, 8213, -1, -1, 8216, -1, -1, -1, -1, -1, 8222, -1, -1, -1, 8236, 8235, 8234, 8233, 8232, 8231, -1, -1, -1, -1, -1, -1, -1, 8241, 8240, -1, -1, -1, 8244, -1, -1, 8263, 8262, 8261, 8260, 8259, 8258, 8257, 8256, 8255, -1, -1, -1, -1, -1, -1, -1, -1, -1, 8271, 8270, 8269, 8268, -1, -1, -1, -1, -1, 8308, 8291, 8290, 8289, 8288, 8287, 8286, 8285, 8284, 8283, -1, -1, -1, -1, -1, -1, -1, -1, -1, 8307, 8306, 8305, 8304, 8303, 8302, 8301, 8300, -1, -1, -1, -1, -1, -1, -1, -1, -1, 8314, 8313, 8312, -1, -1, -1, -1, 8351, 8348, 8337, 8336, 8333, 8332, 8329, 8328, 8327, 8326, -1, -1, -1, -1, 8331, -1, -1, -1, 8335, -1, -1, -1, 8347, 8346, 8345, 8344, 8343, -1, -1, -1, -1, -1, -1, 8350, -1, -1, 8353, -1, -1, 8368, 8363, 8362, 8361, 8360, -1, -1, -1, -1, 8367, 8366, -1, -1, -1, 8372, 8371, -1, -1, -1, 8387, 8384, 8381, 8380, 8379, -1, -1, -1, 8383, -1, -1, 8386, -1, -1, -1, 8396, 8395, 8394, 8393, -1, -1, -1, -1, 8400, 8399, -1, -1, -1, 8473, 8466, 8461, 8456, 8451, 8446, 8441, 8432, 8429, 8426, 8423, 8418, 8417, 8416, -1, -1, -1, 8422, 8421, -1, -1, -1, 8425, -1, -1, 8428, -1, -1, 8431, -1, -1, 8440, 8439, 8438, 8437, -1, -1, -1, -1, -1, 8445, 8444, -1, -1, -1, 8450, 8449, -1, -1, -1, 8455, 8454, -1, -1, -1, 8460, 8459, -1, -1, -1, 8465, 8464, -1, -1, -1, 8472, 8471, 8470, -1, -1, -1, -1, 8477, 8476, -1, -1, -1, 8544, 8537, 8532, 8527, 8522, 8517, 8506, 8501, 8500, 8499, 8498, 8497, 8494, 8493, -1, -1, 8496, -1, -1, -1, -1, -1, -1, 8505, 8504, -1, -1, -1, 8516, 8515, 8514, 8513, 8512, -1, -1, -1, -1, -1, -1, 8521, 8520, -1, -1, -1, 8526, 8525, -1, -1, -1, 8531, 8530, -1, -1, -1, 8536, 8535, -1, -1, -1, 8543, 8542, 8541, -1, -1, -1, -1, 8548, 8547, -1, -1, -1, 8667, 8632, 8611, 8602, 8587, 8572, 8567, 8564, 8561, 8560, -1, -1, 8563, -1, -1, 8566, -1, -1, 8571, 8570, -1, -1, -1, 8582, 8579, 8578, 8577, -1, -1, -1, 8581, -1, -1, 8586, 8585, -1, -1, -1, 8595, 8594, 8593, 8592, -1, -1, -1, -1, 8601, 8600, 8599, -1, -1, -1, -1, 8608, 8607, 8606, -1, -1, -1, 8610, -1, -1, 8629, 8628, 8625, 8620, 8619, 8618, -1, -1, -1, 8624, 8623, -1, -1, -1, 8627, -1, -1, -1, 8631, -1, -1, 8662, 8655, 8654, 8651, 8650, 8649, 8644, 8643, 8642, -1, -1, -1, 8648, 8647, -1, -1, -1, -1, -1, 8653, -1, -1, -1, 8661, 8660, 8659, -1, -1, -1, -1, 8666, 8665, -1, -1, -1, -1, 8748, 8725, 8710, 8703, 8698, 8691, 8686, 8683, 8680, 8679, -1, -1, 8682, -1, -1, 8685, -1, -1, 8690, 8689, -1, -1, -1, 8697, 8696, 8695, -1, -1, -1, -1, 8700, -1, 8702, -1, -1, 8709, 8708, 8707, -1, -1, -1, -1, 8722, 8719, 8716, 8715, -1, -1, 8718, -1, -1, 8721, -1, -1, 8724, -1, -1, 8741, 8738, 8733, 8732, 8731, -1, -1, -1, 8737, 8736, -1, -1, -1, 8740, -1, -1, 8747, 8746, 8745, -1, -1, -1, -1, 8780, 8775, 8770, 8765, 8762, 8759, 8758, 8757, -1, -1, -1, 8761, -1, -1, 8764, -1, -1, 8769, 8768, -1, -1, -1, 8774, 8773, -1, -1, -1, 8779, 8778, -1, -1, -1, 8784, 8783, -1, -1, -1],"thresholds": [0.5, 0.5, 0.5, 0.5, 0.5, 0.5, 0.5, 0.5, 0.5, 0.5, 0.5, 0.5, 0.5, 0.5, 0.5, 0.5, 0.5, 0.5, 0.5, 0.5, 0.5, 0.5, 0.5, 0.5, 0.5, 0.5, 0.5, -2.0, -2.0, -2.0, -2.0, -2.0, -2.0, -2.0, -2.0, 0.5, 0.5, 0.5, 0.5, -2.0, -2.0, -2.0, -2.0, -2.0, 0.5, 0.5, -2.0, -2.0, -2.0, -2.0, 0.5, 0.5, 0.5, 0.5, 0.5, 0.5, 0.5, 0.5, 0.5, 0.5, -2.0, -2.0, -2.0, -2.0, -2.0, 0.5, 0.5, 0.5, -2.0, -2.0, -2.0, -2.0, 0.5, -2.0, -2.0, -2.0, -2.0, 0.5, -2.0, -2.0, -2.0, 0.5, 0.5, 0.5, 0.5, 0.5, 0.5, 0.5, -2.0, 0.5, -2.0, -2.0, -2.0, -2.0, -2.0, -2.0, -2.0, 0.5, 0.5, 0.5, 0.5, -2.0, -2.0, -2.0, -2.0, -2.0, 0.5, 0.5, 0.5, -2.0, -2.0, -2.0, -2.0, 0.5, 0.5, -2.0, -2.0, -2.0, 0.5, 0.5, -2.0, -2.0, -2.0, 0.5, 0.5, 0.5, 0.5, 0.5, 0.5, 0.5, 0.5, 0.5, 0.5, 0.5, 0.5, 0.5, 0.5, -2.0, -2.0, -2.0, -2.0, -2.0, -2.0, -2.0, -2.0, -2.0, 0.5, 0.5, 0.5, 0.5, -2.0, -2.0, -2.0, -2.0, -2.0, 0.5, -2.0, -2.0, 0.5, -2.0, -2.0, -2.0, 0.5, 0.5, 0.5, 0.5, 0.5, -2.0, -2.0, -2.0, -2.0, -2.0, -2.0, 0.5, 0.5, 0.5, 0.5, 0.5, 0.5, 0.5, -2.0, -2.0, -2.0, -2.0, -2.0, 0.5, -2.0, -2.0, -2.0, -2.0, 0.5, 0.5, 0.5, 0.5, 0.5, -2.0, -2.0, 0.5, -2.0, -2.0, 0.5, 0.5, -2.0, -2.0, -2.0, 0.5, 0.5, -2.0, -2.0, -2.0, 0.5, -2.0, -2.0, 0.5, 0.5, 0.5, 0.5, 0.5, -2.0, -2.0, 0.5, 0.5, 0.5, -2.0, -2.0, -2.0, -2.0, -2.0, -2.0, 0.5, 0.5, -2.0, -2.0, -2.0, 0.5, 0.5, 0.5, 0.5, 0.5, 0.5, 0.5, 0.5, 0.5, 0.5, 0.5, 0.5, 0.5, 0.5, -2.0, -2.0, 0.5, -2.0, -2.0, -2.0, 0.5, -2.0, -2.0, -2.0, -2.0, -2.0, 0.5, 0.5, -2.0, -2.0, -2.0, -2.0, -2.0, 0.5, -2.0, -2.0, 0.5, 0.5, 0.5, 0.5, -2.0, -2.0, -2.0, -2.0, -2.0, 0.5, -2.0, -2.0, 0.5, 0.5, 0.5, 0.5, 0.5, 0.5, 0.5, 0.5, 0.5, -2.0, -2.0, -2.0, -2.0, -2.0, -2.0, -2.0, -2.0, -2.0, 0.5, -2.0, -2.0, 0.5, 0.5, 0.5, 0.5, 0.5, 0.5, 0.5, 0.5, 0.5, 0.5, 0.5, 0.5, 0.5, 0.5, -2.0, 0.5, 0.5, 0.5, -2.0, -2.0, -2.0, -2.0, -2.0, 0.5, 0.5, 0.5, 0.5, 0.5, 0.5, -2.0, -2.0, 0.5, -2.0, -2.0, -2.0, -2.0, -2.0, -2.0, 0.5, 0.5, -2.0, -2.0, 0.5, -2.0, -2.0, -2.0, -2.0, -2.0, -2.0, -2.0, 0.5, -2.0, -2.0, -2.0, 0.5, 0.5, 0.5, 0.5, 0.5, -2.0, -2.0, -2.0, -2.0, -2.0, -2.0, 0.5, -2.0, -2.0, 0.5, 0.5, 0.5, 0.5, -2.0, 0.5, 0.5, -2.0, -2.0, -2.0, -2.0, -2.0, 0.5, 0.5, -2.0, -2.0, -2.0, 0.5, 0.5, 0.5, 0.5, 0.5, 0.5, 0.5, 0.5, 0.5, 0.5, 0.5, 0.5, 0.5, 0.5, 0.5, 0.5, 0.5, -2.0, -2.0, 0.5, -2.0, -2.0, 0.5, 0.5, 0.5, -2.0, -2.0, 0.5, -2.0, -2.0, 0.5, -2.0, -2.0, 0.5, -2.0, -2.0, 0.5, -2.0, -2.0, -2.0, 0.5, -2.0, -2.0, 0.5, 0.5, -2.0, -2.0, 0.5, -2.0, -2.0, -2.0, -2.0, 0.5, -2.0, -2.0, 0.5, 0.5, -2.0, 0.5, 0.5, -2.0, -2.0, -2.0, 0.5, -2.0, -2.0, 0.5, 0.5, 0.5, 0.5, 0.5, 0.5, 0.5, 0.5, 0.5, 0.5, 0.5, -2.0, -2.0, -2.0, -2.0, -2.0, -2.0, -2.0, -2.0, 0.5, 0.5, -2.0, -2.0, -2.0, -2.0, 0.5, 0.5, 0.5, 0.5, -2.0, -2.0, -2.0, -2.0, -2.0, 0.5, 0.5, -2.0, -2.0, -2.0, 0.5, 0.5, -2.0, -2.0, 0.5, -2.0, -2.0, 0.5, -2.0, -2.0, 0.5, -2.0, -2.0, 0.5, 0.5, 0.5, 0.5, 0.5, 0.5, 0.5, 0.5, 0.5, 0.5, 0.5, 0.5, -2.0, -2.0, -2.0, -2.0, -2.0, -2.0, -2.0, -2.0, 0.5, -2.0, -2.0, 0.5, 0.5, 0.5, 0.5, -2.0, -2.0, -2.0, -2.0, -2.0, -2.0, -2.0, 0.5, 0.5, -2.0, -2.0, -2.0, 0.5, 0.5, 0.5, 0.5, 0.5, 0.5, 0.5, 0.5, 0.5, 0.5, 0.5, 0.5, 0.5, 0.5, 0.5, 0.5, 0.5, 0.5, 0.5, 0.5, 0.5, -2.0, -2.0, -2.0, -2.0, -2.0, 0.5, 0.5, 0.5, 0.5, -2.0, -2.0, -2.0, -2.0, -2.0, 0.5, 0.5, 0.5, 0.5, -2.0, -2.0, -2.0, -2.0, 0.5, -2.0, -2.0, 0.5, 0.5, -2.0, -2.0, -2.0, 0.5, 0.5, -2.0, -2.0, -2.0, 0.5, 0.5, 0.5, 0.5, 0.5, 0.5, 0.5, -2.0, -2.0, -2.0, -2.0, 0.5, 0.5, 0.5, -2.0, -2.0, -2.0, -2.0, 0.5, -2.0, -2.0, -2.0, -2.0, 0.5, 0.5, 0.5, -2.0, -2.0, 0.5, -2.0, -2.0, 0.5, -2.0, -2.0, 0.5, 0.5, -2.0, 0.5, -2.0, -2.0, -2.0, 0.5, 0.5, 0.5, 0.5, -2.0, -2.0, -2.0, -2.0, 0.5, 0.5, -2.0, -2.0, -2.0, 0.5, 0.5, -2.0, -2.0, 0.5, -2.0, -2.0, 0.5, 0.5, 0.5, 0.5, 0.5, 0.5, 0.5, -2.0, -2.0, 0.5, -2.0, -2.0, -2.0, 0.5, -2.0, -2.0, -2.0, -2.0, 0.5, 0.5, 0.5, 0.5, 0.5, -2.0, -2.0, -2.0, -2.0, -2.0, -2.0, 0.5, 0.5, 0.5, 0.5, -2.0, -2.0, -2.0, -2.0, -2.0, 0.5, 0.5, 0.5, 0.5, 0.5, 0.5, 0.5, -2.0, -2.0, -2.0, 0.5, -2.0, -2.0, -2.0, 0.5, -2.0, -2.0, -2.0, 0.5, -2.0, -2.0, -2.0, 0.5, 0.5, 0.5, 0.5, -2.0, -2.0, -2.0, -2.0, -2.0, 0.5, 0.5, 0.5, 0.5, 0.5, 0.5, 0.5, 0.5, 0.5, 0.5, 0.5, 0.5, 0.5, 0.5, 0.5, -2.0, -2.0, -2.0, -2.0, 0.5, -2.0, -2.0, 0.5, -2.0, -2.0, 0.5, -2.0, -2.0, 0.5, 0.5, 0.5, -2.0, -2.0, -2.0, -2.0, 0.5, -2.0, -2.0, -2.0, -2.0, -2.0, 0.5, -2.0, -2.0, 0.5, 0.5, -2.0, -2.0, -2.0, 0.5, 0.5, 0.5, -2.0, -2.0, -2.0, -2.0, 0.5, 0.5, -2.0, -2.0, -2.0, 0.5, 0.5, 0.5, 0.5, 0.5, 0.5, 0.5, 0.5, 0.5, 0.5, 0.5, 0.5, 0.5, 0.5, 0.5, -2.0, -2.0, -2.0, -2.0, -2.0, -2.0, -2.0, -2.0, -2.0, -2.0, 0.5, 0.5, 0.5, -2.0, -2.0, -2.0, -2.0, -2.0, 0.5, -2.0, -2.0, 0.5, 0.5, 0.5, -2.0, -2.0, -2.0, -2.0, 0.5, 0.5, -2.0, -2.0, -2.0, 0.5, 0.5, -2.0, -2.0, -2.0, 0.5, 0.5, 0.5, 0.5, 0.5, 0.5, -2.0, -2.0, -2.0, 0.5, 0.5, -2.0, -2.0, -2.0, 0.5, 0.5, -2.0, -2.0, -2.0, -2.0, 0.5, -2.0, -2.0, 0.5, 0.5, 0.5, 0.5, 0.5, 0.5, 0.5, 0.5, 0.5, 0.5, 0.5, 0.5, 0.5, 0.5, 0.5, 0.5, 0.5, 0.5, 0.5, 0.5, 0.5, 0.5, 0.5, 0.5, -2.0, -2.0, -2.0, -2.0, -2.0, -2.0, -2.0, -2.0, 0.5, 0.5, 0.5, -2.0, -2.0, -2.0, -2.0, 0.5, 0.5, 0.5, 0.5, 0.5, 0.5, 0.5, 0.5, -2.0, -2.0, 0.5, -2.0, -2.0, 0.5, -2.0, -2.0, 0.5, -2.0, -2.0, 0.5, -2.0, -2.0, 0.5, -2.0, -2.0, -2.0, -2.0, 0.5, -2.0, 0.5, -2.0, -2.0, 0.5, 0.5, -2.0, -2.0, 0.5, -2.0, -2.0, 0.5, 0.5, 0.5, 0.5, -2.0, 0.5, -2.0, -2.0, -2.0, 0.5, -2.0, -2.0, -2.0, 0.5, 0.5, 0.5, 0.5, 0.5, 0.5, 0.5, 0.5, -2.0, -2.0, -2.0, -2.0, -2.0, -2.0, -2.0, 0.5, 0.5, 0.5, -2.0, -2.0, -2.0, -2.0, -2.0, 0.5, 0.5, 0.5, 0.5, 0.5, 0.5, 0.5, 0.5, 0.5, 0.5, -2.0, -2.0, -2.0, 0.5, -2.0, -2.0, 0.5, -2.0, -2.0, 0.5, -2.0, -2.0, 0.5, -2.0, -2.0, -2.0, -2.0, -2.0, 0.5, 0.5, 0.5, 0.5, 0.5, 0.5, 0.5, 0.5, -2.0, -2.0, -2.0, -2.0, -2.0, -2.0, -2.0, -2.0, -2.0, 0.5, 0.5, 0.5, -2.0, -2.0, 0.5, -2.0, -2.0, 0.5, 0.5, -2.0, -2.0, -2.0, 0.5, 0.5, 0.5, -2.0, -2.0, -2.0, 0.5, 0.5, -2.0, -2.0, -2.0, 0.5, 0.5, 0.5, 0.5, 0.5, -2.0, -2.0, 0.5, -2.0, -2.0, -2.0, 0.5, 0.5, -2.0, -2.0, -2.0, 0.5, -2.0, -2.0, 0.5, 0.5, 0.5, 0.5, 0.5, 0.5, 0.5, 0.5, 0.5, 0.5, 0.5, 0.5, 0.5, 0.5, 0.5, 0.5, -2.0, -2.0, 0.5, -2.0, -2.0, 0.5, -2.0, -2.0, 0.5, 0.5, 0.5, -2.0, -2.0, -2.0, -2.0, 0.5, -2.0, -2.0, 0.5, 0.5, -2.0, -2.0, 0.5, -2.0, -2.0, 0.5, 0.5, -2.0, -2.0, 0.5, -2.0, -2.0, 0.5, -2.0, 0.5, -2.0, -2.0, 0.5, 0.5, -2.0, -2.0, -2.0, 0.5, 0.5, -2.0, -2.0, -2.0, 0.5, 0.5, -2.0, -2.0, 0.5, -2.0, -2.0, 0.5, 0.5, -2.0, -2.0, 0.5, -2.0, -2.0, 0.5, 0.5, 0.5, 0.5, 0.5, 0.5, 0.5, 0.5, 0.5, 0.5, 0.5, -2.0, -2.0, -2.0, -2.0, -2.0, -2.0, -2.0, -2.0, -2.0, -2.0, -2.0, 0.5, -2.0, -2.0, 0.5, 0.5, 0.5, -2.0, -2.0, -2.0, 0.5, -2.0, -2.0, 0.5, 0.5, 0.5, -2.0, -2.0, -2.0, 0.5, -2.0, -2.0, 0.5, 0.5, 0.5, 0.5, -2.0, -2.0, -2.0, -2.0, -2.0, 0.5, 0.5, 0.5, 0.5, 0.5, -2.0, 0.5, -2.0, -2.0, -2.0, -2.0, 0.5, 0.5, -2.0, -2.0, -2.0, -2.0, 0.5, 0.5, 0.5, 0.5, 0.5, 0.5, 0.5, 0.5, 0.5, 0.5, 0.5, 0.5, 0.5, 0.5, 0.5, 0.5, 0.5, -2.0, -2.0, -2.0, -2.0, -2.0, -2.0, 0.5, -2.0, -2.0, 0.5, 0.5, -2.0, -2.0, -2.0, -2.0, -2.0, 0.5, -2.0, -2.0, -2.0, 0.5, 0.5, -2.0, -2.0, -2.0, 0.5, 0.5, -2.0, -2.0, -2.0, 0.5, 0.5, 0.5, 0.5, 0.5, 0.5, 0.5, -2.0, -2.0, -2.0, -2.0, 0.5, -2.0, -2.0, -2.0, -2.0, 0.5, 0.5, 0.5, 0.5, -2.0, -2.0, -2.0, -2.0, -2.0, 0.5, 0.5, -2.0, -2.0, 0.5, -2.0, -2.0, 0.5, -2.0, -2.0, 0.5, -2.0, -2.0, 0.5, 0.5, 0.5, 0.5, 0.5, 0.5, 0.5, 0.5, 0.5, 0.5, 0.5, 0.5, 0.5, 0.5, 0.5, 0.5, -2.0, -2.0, -2.0, -2.0, -2.0, -2.0, 0.5, 0.5, 0.5, 0.5, 0.5, 0.5, 0.5, 0.5, -2.0, -2.0, -2.0, -2.0, -2.0, -2.0, -2.0, 0.5, 0.5, 0.5, 0.5, -2.0, -2.0, -2.0, -2.0, -2.0, 0.5, -2.0, -2.0, 0.5, 0.5, 0.5, 0.5, 0.5, 0.5, 0.5, -2.0, -2.0, -2.0, -2.0, -2.0, 0.5, -2.0, -2.0, -2.0, -2.0, 0.5, 0.5, -2.0, -2.0, -2.0, 0.5, 0.5, -2.0, -2.0, -2.0, -2.0, 0.5, -2.0, -2.0, 0.5, 0.5, -2.0, 0.5, -2.0, -2.0, 0.5, -2.0, -2.0, 0.5, 0.5, 0.5, -2.0, -2.0, -2.0, 0.5, 0.5, -2.0, -2.0, -2.0, 0.5, -2.0, 0.5, -2.0, -2.0, 0.5, 0.5, 0.5, 0.5, 0.5, 0.5, 0.5, 0.5, 0.5, 0.5, 0.5, 0.5, 0.5, -2.0, -2.0, 0.5, -2.0, -2.0, -2.0, -2.0, -2.0, -2.0, 0.5, -2.0, -2.0, 0.5, -2.0, -2.0, -2.0, 0.5, -2.0, -2.0, -2.0, -2.0, -2.0, 0.5, 0.5, 0.5, 0.5, 0.5, 0.5, 0.5, 0.5, 0.5, 0.5, 0.5, 0.5, 0.5, -2.0, -2.0, 0.5, 0.5, -2.0, -2.0, -2.0, 0.5, 0.5, 0.5, 0.5, -2.0, -2.0, -2.0, -2.0, -2.0, -2.0, -2.0, -2.0, 0.5, 0.5, -2.0, -2.0, -2.0, 0.5, -2.0, -2.0, 0.5, -2.0, -2.0, -2.0, -2.0, -2.0, 0.5, 0.5, 0.5, 0.5, 0.5, 0.5, 0.5, 0.5, -2.0, -2.0, -2.0, -2.0, -2.0, -2.0, -2.0, -2.0, -2.0, 0.5, 0.5, 0.5, 0.5, 0.5, 0.5, 0.5, 0.5, 0.5, 0.5, 0.5, 0.5, 0.5, 0.5, 0.5, -2.0, 0.5, 0.5, 0.5, 0.5, -2.0, -2.0, -2.0, -2.0, -2.0, -2.0, 0.5, -2.0, -2.0, -2.0, -2.0, -2.0, 0.5, 0.5, 0.5, 0.5, 0.5, 0.5, 0.5, -2.0, -2.0, -2.0, -2.0, -2.0, -2.0, -2.0, -2.0, -2.0, 0.5, 0.5, 0.5, -2.0, -2.0, -2.0, -2.0, 0.5, -2.0, -2.0, 0.5, 0.5, -2.0, -2.0, 0.5, -2.0, -2.0, 0.5, 0.5, 0.5, -2.0, -2.0, -2.0, -2.0, 0.5, 0.5, 0.5, 0.5, 0.5, 0.5, -2.0, 0.5, 0.5, 0.5, 0.5, 0.5, 0.5, 0.5, -2.0, -2.0, -2.0, -2.0, -2.0, -2.0, -2.0, -2.0, -2.0, -2.0, 0.5, -2.0, -2.0, -2.0, -2.0, -2.0, 0.5, -2.0, -2.0, 0.5, 0.5, 0.5, 0.5, 0.5, 0.5, 0.5, 0.5, 0.5, 0.5, 0.5, 0.5, 0.5, 0.5, 0.5, 0.5, 0.5, 0.5, 0.5, -2.0, -2.0, -2.0, 0.5, 0.5, -2.0, -2.0, -2.0, -2.0, 0.5, -2.0, -2.0, 0.5, -2.0, -2.0, 0.5, -2.0, -2.0, 0.5, -2.0, -2.0, -2.0, 0.5, -2.0, -2.0, 0.5, -2.0, -2.0, 0.5, 0.5, 0.5, 0.5, 0.5, 0.5, -2.0, -2.0, -2.0, -2.0, -2.0, -2.0, -2.0, 0.5, 0.5, 0.5, 0.5, 0.5, 0.5, 0.5, 0.5, -2.0, -2.0, -2.0, -2.0, -2.0, -2.0, 0.5, -2.0, -2.0, -2.0, -2.0, 0.5, 0.5, -2.0, -2.0, -2.0, 0.5, 0.5, 0.5, 0.5, 0.5, 0.5, 0.5, 0.5, 0.5, 0.5, 0.5, 0.5, -2.0, -2.0, 0.5, -2.0, -2.0, -2.0, -2.0, -2.0, -2.0, 0.5, -2.0, -2.0, -2.0, 0.5, -2.0, -2.0, 0.5, 0.5, 0.5, 0.5, -2.0, -2.0, -2.0, -2.0, -2.0, 0.5, -2.0, -2.0, 0.5, -2.0, -2.0, 0.5, 0.5, 0.5, 0.5, 0.5, -2.0, -2.0, -2.0, -2.0, 0.5, -2.0, -2.0, -2.0, 0.5, 0.5, 0.5, 0.5, 0.5, -2.0, -2.0, -2.0, -2.0, -2.0, 0.5, 0.5, -2.0, -2.0, -2.0, 0.5, 0.5, 0.5, 0.5, 0.5, 0.5, 0.5, 0.5, 0.5, 0.5, 0.5, 0.5, 0.5, -2.0, -2.0, -2.0, -2.0, -2.0, -2.0, 0.5, -2.0, -2.0, -2.0, 0.5, 0.5, 0.5, -2.0, -2.0, -2.0, -2.0, 0.5, -2.0, -2.0, 0.5, 0.5, -2.0, -2.0, -2.0, -2.0, 0.5, -2.0, -2.0, 0.5, 0.5, -2.0, -2.0, -2.0, 0.5, 0.5, 0.5, 0.5, -2.0, -2.0, -2.0, -2.0, -2.0, 0.5, 0.5, 0.5, 0.5, 0.5, 0.5, 0.5, 0.5, 0.5, 0.5, 0.5, 0.5, 0.5, 0.5, -2.0, -2.0, -2.0, 0.5, 0.5, 0.5, -2.0, -2.0, -2.0, -2.0, 0.5, -2.0, -2.0, -2.0, -2.0, -2.0, 0.5, -2.0, -2.0, 0.5, 0.5, -2.0, -2.0, 0.5, -2.0, -2.0, -2.0, -2.0, 0.5, 0.5, 0.5, 0.5, 0.5, 0.5, 0.5, 0.5, 0.5, 0.5, 0.5, 0.5, 0.5, 0.5, -2.0, -2.0, -2.0, -2.0, -2.0, -2.0, 0.5, 0.5, -2.0, -2.0, -2.0, -2.0, 0.5, -2.0, -2.0, -2.0, 0.5, 0.5, 0.5, 0.5, -2.0, -2.0, -2.0, -2.0, -2.0, -2.0, 0.5, -2.0, -2.0, -2.0, -2.0, 0.5, 0.5, 0.5, 0.5, 0.5, 0.5, 0.5, 0.5, 0.5, -2.0, -2.0, -2.0, -2.0, -2.0, -2.0, -2.0, 0.5, -2.0, -2.0, 0.5, -2.0, -2.0, -2.0, 0.5, 0.5, 0.5, 0.5, 0.5, 0.5, 0.5, 0.5, 0.5, 0.5, 0.5, 0.5, 0.5, 0.5, 0.5, 0.5, -2.0, -2.0, -2.0, -2.0, -2.0, -2.0, -2.0, 0.5, 0.5, 0.5, 0.5, -2.0, -2.0, -2.0, -2.0, -2.0, 0.5, -2.0, -2.0, 0.5, -2.0, -2.0, 0.5, -2.0, -2.0, 0.5, 0.5, 0.5, 0.5, 0.5, 0.5, 0.5, -2.0, -2.0, -2.0, -2.0, -2.0, -2.0, -2.0, -2.0, 0.5, 0.5, -2.0, -2.0, -2.0, 0.5, 0.5, -2.0, -2.0, -2.0, 0.5, -2.0, -2.0, 0.5, 0.5, -2.0, -2.0, -2.0, 0.5, 0.5, -2.0, -2.0, -2.0, 0.5, 0.5, 0.5, 0.5, 0.5, 0.5, 0.5, 0.5, 0.5, 0.5, 0.5, 0.5, 0.5, 0.5, 0.5, 0.5, 0.5, 0.5, 0.5, 0.5, 0.5, 0.5, 0.5, 0.5, 0.5, -2.0, -2.0, 0.5, -2.0, -2.0, 0.5, -2.0, -2.0, 0.5, 0.5, 0.5, -2.0, -2.0, 0.5, -2.0, -2.0, -2.0, 0.5, 0.5, 0.5, -2.0, -2.0, 0.5, -2.0, -2.0, 0.5, -2.0, -2.0, 0.5, 0.5, 0.5, 0.5, -2.0, -2.0, 0.5, -2.0, -2.0, -2.0, 0.5, -2.0, -2.0, 0.5, 0.5, 0.5, -2.0, -2.0, 0.5, 0.5, -2.0, -2.0, -2.0, 0.5, 0.5, -2.0, -2.0, -2.0, 0.5, 0.5, 0.5, -2.0, -2.0, 0.5, -2.0, -2.0, 0.5, 0.5, -2.0, -2.0, -2.0, 0.5, 0.5, 0.5, 0.5, -2.0, -2.0, -2.0, 0.5, 0.5, -2.0, -2.0, -2.0, 0.5, 0.5, -2.0, -2.0, -2.0, 0.5, 0.5, 0.5, -2.0, -2.0, 0.5, 0.5, -2.0, -2.0, -2.0, 0.5, 0.5, -2.0, -2.0, -2.0, 0.5, 0.5, 0.5, 0.5, -2.0, -2.0, 0.5, -2.0, -2.0, -2.0, 0.5, 0.5, -2.0, -2.0, -2.0, 0.5, 0.5, 0.5, 0.5, -2.0, -2.0, 0.5, -2.0, -2.0, -2.0, 0.5, 0.5, -2.0, -2.0, -2.0, 0.5, 0.5, 0.5, 0.5, 0.5, 0.5, 0.5, 0.5, 0.5, 0.5, 0.5, -2.0, -2.0, -2.0, -2.0, -2.0, -2.0, -2.0, 0.5, 0.5, 0.5, 0.5, 0.5, 0.5, 0.5, -2.0, -2.0, -2.0, -2.0, -2.0, 0.5, -2.0, -2.0, -2.0, 0.5, -2.0, -2.0, 0.5, -2.0, -2.0, 0.5, 0.5, 0.5, 0.5, 0.5, 0.5, 0.5, 0.5, -2.0, -2.0, -2.0, -2.0, -2.0, -2.0, -2.0, 0.5, 0.5, 0.5, 0.5, 0.5, 0.5, -2.0, -2.0, -2.0, -2.0, -2.0, -2.0, -2.0, 0.5, -2.0, -2.0, 0.5, 0.5, 0.5, -2.0, -2.0, -2.0, 0.5, -2.0, -2.0, 0.5, 0.5, 0.5, 0.5, 0.5, -2.0, -2.0, -2.0, 0.5, 0.5, 0.5, 0.5, 0.5, 0.5, 0.5, -2.0, -2.0, -2.0, -2.0, -2.0, -2.0, -2.0, -2.0, 0.5, -2.0, -2.0, 0.5, 0.5, 0.5, 0.5, 0.5, 0.5, 0.5, 0.5, -2.0, -2.0, -2.0, -2.0, -2.0, -2.0, -2.0, -2.0, -2.0, 0.5, 0.5, 0.5, 0.5, 0.5, 0.5, 0.5, 0.5, 0.5, 0.5, 0.5, -2.0, -2.0, -2.0, -2.0, -2.0, -2.0, 0.5, 0.5, -2.0, -2.0, -2.0, -2.0, 0.5, -2.0, -2.0, 0.5, -2.0, -2.0, 0.5, 0.5, 0.5, 0.5, 0.5, 0.5, 0.5, -2.0, -2.0, -2.0, -2.0, -2.0, -2.0, -2.0, -2.0, 0.5, 0.5, 0.5, 0.5, 0.5, 0.5, 0.5, 0.5, 0.5, -2.0, -2.0, -2.0, 0.5, 0.5, -2.0, -2.0, -2.0, 0.5, -2.0, -2.0, 0.5, -2.0, -2.0, 0.5, -2.0, -2.0, -2.0, 0.5, -2.0, -2.0, 0.5, -2.0, -2.0, 0.5, 0.5, 0.5, 0.5, 0.5, 0.5, 0.5, 0.5, 0.5, 0.5, 0.5, 0.5, -2.0, -2.0, -2.0, -2.0, -2.0, -2.0, -2.0, -2.0, 0.5, 0.5, 0.5, 0.5, 0.5, 0.5, 0.5, 0.5, -2.0, -2.0, -2.0, -2.0, -2.0, -2.0, -2.0, -2.0, 0.5, -2.0, -2.0, 0.5, 